3000 50
<pad> 0.750701 0.470052 -1.438876 1.409447 -0.022789 -0.311023 -0.751507 -0.374673 -0.231641 0.188294 0.409108 -0.276105 -1.674495 1.297477 0.014157 -0.324280 0.918871 0.318159 -0.837238 -0.702959 0.469864 -1.547675 0.540737 1.354808 -0.862596 -0.013452 0.224442 1.203865 -1.720511 0.306694 -0.372698 1.695871 1.440474 -0.346972 1.503335 0.799246 -0.511997 -0.137537 0.584527 0.161270 -0.250577 -0.880248 -0.784457 -1.296123 0.189263 0.188533 2.362585 -0.557149 -0.123020 0.777794
<start> -0.118036 -1.058338 -0.001499 -0.559692 -0.835241 0.868616 0.184510 -0.902339 0.128117 -0.727090 0.270172 -1.241587 0.854936 -0.755312 1.034395 -1.649454 0.711086 0.371143 0.448125 1.087417 -0.451796 0.560688 0.300591 -0.805672 0.927257 -1.561658 -1.645776 -0.893288 1.204172 -0.981618 1.943224 -1.056319 -0.069938 0.205007 -0.463667 0.046267 0.388015 -0.339939 -2.358609 0.638269 -1.524567 -0.612114 0.044637 -0.854928 0.688590 0.314908 -0.540408 0.257334 0.867755 1.747281
<end> 0.719900 -0.272935 -0.323470 0.224269 0.287335 0.142185 0.676802 -0.108239 -0.386415 -0.648372 -1.214191 -0.860278 0.376487 -0.308852 0.489699 0.470249 0.396293 -1.533903 -0.685252 -0.535940 -1.030979 1.210671 0.276362 -0.175979 0.059343 0.185360 0.380993 -0.916286 0.078602 1.108253 -1.304530 -2.124399 0.189300 0.358934 -0.611813 -1.297320 0.805613 0.726642 -0.284912 -0.234737 -0.273479 0.878656 0.001316 0.602843 2.871387 -0.929311 1.090593 -0.394738 -0.319553 -1.944692
<unk> 0.029438 0.044436 0.101134 0.644883 -0.063996 -0.099609 -0.035817 -1.031041 0.004919 -0.117334 0.047606 -0.036533 0.287686 0.414465 -0.147449 0.040075 -0.075049 -0.089854 -0.048175 -0.061320 0.027776 -0.000407 0.089276 0.009066 -0.038033 0.029632 0.011056 -0.002309 0.033503 0.053449 -0.095799 -0.082329 -0.009063 -0.000598 -0.092626 0.004061 -0.044507 -0.053377 0.009945 -0.010026 -0.146805 -0.141547 0.066181 -0.025304 -0.050969 0.050767 0.048932 -0.150011 0.035777 -0.130232
the -0.091626 0.017326 -0.011067 0.626576 -0.054474 -0.343484 -0.047885 -1.063381 0.074439 0.009912 -0.027759 -0.158081 0.264236 0.432790 0.146606 -0.007970 -0.111149 0.124167 -0.009290 0.069450 0.005780 -0.011765 -0.014510 -0.159429 0.173656 -0.019553 -0.210019 0.019723 -0.030235 -0.141591 0.059535 0.106817 0.018405 0.038448 0.033657 -0.147874 0.087066 0.020096 0.006341 0.014630 0.128765 -0.188921 -0.016852 0.040023 0.082568 -0.253826 -0.049612 0.071854 0.025714 -0.003031
and -0.062405 -0.024044 0.093988 0.621307 0.174386 -0.393740 -0.101166 -0.821433 -0.035733 0.122257 0.016991 0.106381 0.448016 0.258053 -0.083930 -0.001883 -0.168942 -0.087117 0.055206 -0.158389 -0.006426 0.029615 -0.039644 -0.063548 0.006678 -0.031192 -0.001394 0.028727 -0.014240 -0.014680 0.136310 -0.114836 -0.076547 0.093349 -0.016224 0.123813 0.123686 -0.049795 -0.109845 -0.083753 -0.131487 -0.093517 0.093324 -0.084811 -0.163877 -0.126477 0.097579 0.085836 0.131025 -0.129772
of 0.081611 0.160233 0.048316 0.529877 -0.132584 -0.030140 -0.080803 -1.059713 0.024426 0.101115 0.023804 0.251090 0.330407 0.584119 -0.040558 -0.047945 0.146383 0.068913 0.089196 -0.175656 0.036380 0.032401 -0.260974 0.061462 0.030163 0.136040 0.176124 0.022333 -0.191932 -0.168680 -0.094251 0.055986 -0.070462 -0.120822 0.191546 -0.074333 -0.086917 0.105247 0.093648 -0.045925 -0.031448 -0.196931 0.004134 -0.060990 -0.048201 0.148644 -0.046817 -0.079996 -0.369163 -0.154655
to -0.019452 0.025332 -0.070067 0.862874 -0.003684 -0.452791 -0.043180 -0.348951 0.064558 0.037799 0.038192 0.170131 0.461840 0.744045 -0.118893 -0.089848 -0.002106 -0.085074 -0.028988 -0.314331 0.166804 0.101560 0.006828 0.067529 -0.094352 0.043783 0.060419 -0.041481 0.039412 0.131410 -0.072830 0.030229 0.077366 -0.072088 0.095858 -0.005014 0.180896 0.015957 0.069524 0.146237 0.000945 0.329691 0.300415 0.073152 -0.066049 -0.196054 -0.029274 -0.050250 0.036874 0.034701
a 0.093571 0.197249 -0.052385 1.270317 -0.062430 0.148803 -0.017376 -0.740272 -0.063132 0.055302 -0.003304 0.218469 0.265355 0.162542 0.006536 0.143859 -0.135839 -0.104563 0.002058 -0.102540 -0.080082 -0.152184 0.047162 -0.266367 -0.014925 -0.043789 -0.329120 0.061876 -0.012268 -0.022668 0.088113 0.334410 0.279276 -0.055861 -0.145461 0.145834 -0.281296 0.015959 -0.003689 -0.099575 -0.102002 -0.157820 0.094535 -0.005404 0.071541 0.002912 0.059860 -0.091133 0.025106 0.098392
in 0.193879 -0.014799 0.074743 0.613367 -0.055838 -0.212048 0.013859 -0.877489 0.024802 -0.063170 0.006484 0.208840 0.361393 0.373766 -0.071097 -0.006623 0.199933 0.110388 0.021575 -0.012191 -0.010183 -0.044818 -0.267983 0.238996 0.181389 0.023925 -0.012655 0.089954 -0.082061 0.072775 0.075758 0.052688 0.150232 -0.119001 0.175154 0.312205 -0.067090 -0.133975 0.022396 0.000445 -0.080686 -0.247162 -0.018986 0.022623 0.119319 -0.105706 -0.133374 -0.045677 -0.034305 -0.140393
i 0.193701 0.033613 0.100017 0.810601 0.105576 -0.848383 -0.097798 0.352789 -0.086727 -0.367668 -0.212078 0.195398 0.698694 0.479717 -0.332161 0.071249 0.025059 -0.136542 -0.070053 -0.430921 0.039525 -0.037352 0.280844 -0.084213 0.292742 0.136302 0.224104 0.125406 -0.015402 0.082083 0.073512 -0.097005 0.237009 -0.141271 0.063142 -0.386636 0.123220 -0.037172 -0.221296 0.225648 -0.062396 -0.609547 0.204195 -0.210247 -0.181869 0.240093 0.116994 -0.029026 -0.159088 0.106791
he 0.280231 -0.012050 0.218681 1.024646 0.080912 -0.122100 -0.051363 -0.309923 -0.144225 -0.126280 -0.381402 0.005332 0.440225 0.264474 0.084198 0.069973 -0.096081 -0.198122 -0.278862 -0.567425 0.078663 0.096307 -0.060811 0.077051 0.001538 -0.292405 0.237689 -0.110684 0.108997 -0.024272 -0.147441 0.073826 0.008467 -0.199770 0.084163 -0.331608 0.145596 0.063400 0.041582 -0.100363 -0.103317 0.044531 -0.005275 -0.277065 0.181735 0.158648 -0.078162 0.028648 0.266232 -0.076791
that -0.095254 -0.094383 0.015113 0.771338 0.111410 -0.395431 -0.013929 -0.133575 -0.115867 0.084897 0.030414 0.291790 0.526449 0.501453 0.271599 0.233297 0.126103 0.015664 0.230391 -0.421234 0.068944 -0.035546 0.231182 0.107327 0.247471 -0.088131 0.170571 -0.004376 0.172958 0.261987 -0.203004 -0.015590 0.045986 0.000084 -0.092846 0.014708 -0.018982 0.071829 -0.088335 -0.249878 -0.259162 -0.326112 0.213464 -0.148640 0.134743 -0.155630 -0.032682 0.338738 -0.022868 0.036298
his -0.037638 -0.032708 0.012770 1.082875 -0.070584 0.166683 -0.207103 -0.919505 -0.107006 0.054866 -0.337718 -0.000020 0.258087 -0.122567 0.244512 0.000477 -0.039422 -0.065019 -0.067092 -0.314616 -0.026434 0.123742 0.185234 -0.081849 0.012383 -0.154936 0.188730 0.006499 -0.154844 -0.248375 -0.122849 0.180250 -0.064617 0.144937 -0.054093 -0.178888 0.087733 0.005146 -0.106318 -0.057199 -0.344322 0.279532 0.103913 -0.253020 0.134859 0.097670 0.059265 0.009376 0.437866 -0.043388
was -0.035317 0.253292 -0.050010 1.007017 -0.047147 -0.249113 0.207425 -0.305235 0.115227 -0.121378 0.008252 -0.010938 0.411611 -0.005488 -0.060018 -0.107190 -0.080543 0.022528 0.064990 -0.560165 0.092465 -0.083978 0.325974 0.319367 -0.161031 -0.169554 0.018475 0.173974 -0.115235 -0.015776 -0.030737 -0.209582 0.035941 -0.101962 0.199047 -0.077101 -0.427783 0.305885 0.314260 -0.079044 0.092482 -0.516179 -0.006213 -0.178291 0.149460 0.123507 -0.051129 -0.035304 0.143026 0.139606
it -0.114935 0.055703 0.058060 1.186993 0.177931 -0.186391 -0.000852 -0.036730 -0.049942 0.003719 -0.204166 0.468184 0.409459 0.598870 0.152949 0.026625 -0.111117 -0.209162 -0.017035 -0.213012 -0.010593 0.087073 0.477290 -0.033404 0.099335 0.000198 0.281055 -0.034471 0.257550 0.061435 -0.074054 0.342592 -0.092749 -0.184749 0.023824 -0.341722 -0.113114 0.132565 -0.105389 -0.010699 -0.076876 -0.292420 -0.126593 -0.104405 0.122983 -0.128188 -0.184083 0.112958 0.251434 -0.086019
you -0.144743 -0.055113 0.244143 1.000245 -0.036921 -0.597430 0.186482 0.471925 -0.151201 -0.029502 -0.010037 0.153701 1.074648 1.401259 -0.278197 0.033819 0.272951 -0.173758 -0.149111 0.044577 0.039699 0.034920 -0.074292 -0.222911 0.055769 -0.182776 -0.375179 0.164047 -0.419965 -0.200101 0.083425 0.048798 0.120154 -0.285583 -0.085718 -0.326561 0.323342 -0.211763 0.079455 0.018563 -0.276938 -0.202190 -0.125693 -0.029526 0.120027 0.081768 0.286550 -0.244354 -0.224390 0.234313
with -0.268819 -0.038810 0.008928 0.945260 -0.031073 -0.097505 -0.062703 -0.918681 -0.358829 0.018592 0.129731 -0.006059 0.109651 0.101999 -0.013831 0.017705 -0.124254 -0.013582 0.058219 -0.052757 0.087288 0.145482 -0.249605 -0.089898 -0.163083 -0.012889 0.285532 0.071798 -0.002052 0.025190 -0.091394 -0.240904 0.099340 -0.002592 -0.161416 0.199220 0.379822 -0.134694 0.288414 -0.331465 -0.403245 -0.192355 0.207268 -0.028894 -0.142949 -0.112545 0.026099 -0.220271 0.141110 0.126524
is -0.133951 0.152763 -0.227638 0.663955 0.039615 -0.019289 0.043778 -0.506335 -0.193907 0.063905 -0.221924 0.275040 0.306417 1.270473 0.031086 -0.029991 0.019729 0.606080 0.105154 -0.281845 0.059311 -0.290537 0.243161 -0.080948 -0.150937 -0.279649 -0.006050 0.014734 -0.087330 -0.182838 0.186534 -0.037314 0.294459 0.286947 0.210577 0.022163 -0.201616 0.218024 0.255966 -0.051208 -0.257883 -0.413590 -0.208229 -0.214459 0.005841 0.001833 -0.086788 -0.286381 -0.030101 -0.009625
as 0.109637 -0.073462 -0.130628 0.895136 -0.145450 -0.068844 0.085972 -0.409747 -0.250373 0.148928 0.007379 0.329491 0.419785 0.458783 -0.158124 0.088348 -0.084708 -0.319331 -0.124721 -0.054546 0.213978 -0.159962 0.113591 0.078603 0.022778 -0.102642 0.002917 0.054976 0.192396 0.232516 0.069032 -0.068599 -0.347735 0.249409 0.317184 -0.077205 0.260089 -0.076379 -0.093653 0.256259 -0.273039 -0.481078 0.091409 -0.114086 0.135528 -0.285776 -0.364694 -0.016064 -0.116380 0.227472
not 0.020126 -0.069929 -0.117828 0.802443 -0.067079 -0.396761 0.071891 0.124233 -0.182326 -0.069059 0.241117 0.279758 0.793815 0.925228 0.259231 0.003251 -0.110710 -0.349379 0.003062 -0.209861 -0.044962 0.264149 0.006448 0.101151 -0.072688 -0.183760 0.426621 0.254490 0.243563 -0.088547 -0.111361 -0.155197 -0.055128 -0.098684 -0.026242 0.259703 -0.262219 0.150149 0.171493 -0.234262 -0.125158 -0.138911 0.002013 -0.085221 0.040974 -0.004329 -0.320143 0.110098 0.013414 0.179875
for 0.129613 -0.145294 -0.073550 0.884585 0.131941 0.009250 0.046025 -0.144350 0.419486 0.246184 -0.159489 0.131918 0.752585 0.562651 0.034035 -0.028778 -0.022077 -0.070297 0.119427 -0.041438 -0.109851 0.007818 -0.148124 0.026492 -0.063602 -0.212498 -0.042415 0.092012 0.043696 0.288472 0.062923 -0.188731 -0.050968 -0.167878 0.051970 0.213021 0.082756 -0.020091 -0.059313 -0.049790 0.046336 -0.436373 0.261745 -0.095280 -0.274114 0.158366 0.151619 0.081493 -0.030391 0.005109
had -0.107597 -0.139044 -0.009984 0.742561 -0.342489 0.097018 -0.065583 -0.534403 0.219110 0.030413 -0.126408 -0.290408 0.734624 -0.028437 -0.051803 -0.175146 0.177799 -0.209443 0.033232 -0.746201 -0.121138 -0.210867 -0.183659 0.560276 -0.251116 0.399197 0.147014 0.157655 -0.092953 -0.065296 -0.015984 0.184296 0.085484 0.121665 0.155253 0.061104 -0.099821 -0.032576 -0.093571 -0.028831 0.062955 -0.566813 -0.092715 0.033877 0.132956 -0.254273 0.022213 0.266503 0.280165 -0.111483
but 0.148258 0.023437 -0.069841 0.739706 0.194304 -0.278636 -0.128709 -0.314910 -0.229741 0.249295 -0.096382 0.012596 0.588438 0.597759 -0.068461 -0.029102 0.104613 -0.073684 0.117116 -0.157592 -0.096160 -0.120208 0.207422 0.006730 0.170591 -0.046661 0.168048 -0.026246 0.006302 0.390238 -0.146640 -0.106628 -0.016571 0.155945 0.254484 0.051280 -0.082703 0.165926 0.091282 -0.107986 -0.131927 -0.150402 -0.011825 -0.192381 -0.127381 0.105881 -0.046840 0.194635 0.253768 -0.035419
at 0.089235 -0.391035 -0.109599 1.110402 -0.056639 -0.483013 0.126955 -0.612500 0.214768 0.223420 -0.249909 -0.296464 0.104820 0.039598 -0.066525 -0.136683 0.110163 -0.013200 -0.026852 -0.328968 0.268952 0.116624 -0.115081 0.437816 0.261460 -0.110883 0.175386 -0.040936 -0.178558 0.331390 0.061549 -0.036335 0.117742 0.132892 -0.016331 -0.069385 0.104308 0.074057 -0.058091 -0.171553 -0.130262 -0.174723 -0.066222 0.223640 -0.040013 0.163396 0.080092 -0.036613 0.296763 0.033134
be -0.025639 0.258283 0.283324 0.674733 0.221470 -0.272571 0.211859 -0.030031 -0.312116 -0.235558 0.042102 0.135916 0.338036 1.173198 0.395434 0.046383 -0.050578 -0.097756 -0.116711 -0.231917 0.031261 -0.276431 0.245588 0.260490 -0.154835 0.025165 0.142401 -0.161655 -0.225935 0.137435 0.497538 0.142483 -0.177247 0.011285 -0.033695 0.150134 -0.152802 0.097144 0.102007 0.139545 -0.210590 -0.435797 0.266998 -0.078888 0.049954 -0.074201 0.106842 0.169568 0.146504 0.052834
on 0.226613 -0.015519 -0.058599 1.171986 -0.124723 -0.279131 -0.238599 -1.057047 -0.267812 -0.085977 -0.081390 -0.103217 0.201681 -0.051413 0.007074 0.257944 0.348246 0.143443 -0.246911 0.244893 0.161649 0.004653 -0.333364 0.153932 -0.429117 0.070361 0.396311 -0.068815 -0.162967 0.094176 -0.081919 -0.113105 0.147108 0.044669 -0.035126 -0.111796 0.417747 0.394632 0.114081 -0.138099 0.038332 -0.039647 -0.236077 0.095518 0.028196 -0.032642 -0.050257 0.089335 -0.283935 0.072320
her 0.122487 -0.089260 0.107230 1.174808 -0.002271 -0.206565 -0.118876 -0.331938 -0.218600 -0.204589 0.284805 0.236269 0.662517 -0.552655 0.626653 -0.433485 0.022110 -0.397447 -0.025821 -0.376599 0.041486 0.145477 0.202660 -0.301856 0.040254 0.314503 0.344002 -0.172736 -0.506078 -0.162528 0.201369 -0.145289 -0.017238 0.133995 -0.148388 -0.008088 -0.284976 0.191615 0.064142 0.248019 0.192079 -0.117169 0.074975 0.273842 0.007395 -0.042543 -0.025741 -0.074941 0.326203 -0.021987
my 0.010825 0.038306 0.209893 0.639396 -0.290112 -0.476230 -0.246584 -0.218027 -0.137277 -0.340670 -0.382616 0.284464 0.643629 0.207624 0.116843 -0.159872 0.110348 -0.112965 -0.155308 -0.087613 -0.120913 0.206692 0.418091 0.073573 0.101209 0.315696 0.222787 -0.164360 -0.427226 -0.175129 -0.060466 -0.137631 0.389389 0.128930 -0.373040 -0.160851 0.042450 -0.139512 -0.347889 0.142424 -0.211739 -0.281372 0.371224 -0.166655 0.044299 0.014869 0.253038 -0.005261 -0.262970 0.004917
him -0.151307 0.012836 0.220683 1.081396 0.168484 -0.278296 0.010653 -0.140465 0.058627 -0.062730 -0.309638 -0.235667 0.450980 0.188928 0.097249 -0.100054 0.105199 -0.492111 -0.015401 -0.680309 -0.117343 0.070657 0.119369 0.195987 0.070871 -0.017204 0.013381 0.085585 0.056732 -0.034415 -0.107782 -0.214598 0.101311 -0.201062 0.050812 -0.183623 -0.026972 0.060251 0.036494 0.119619 -0.394672 0.104551 0.085880 0.124719 -0.064401 0.034740 0.144210 0.250597 0.452986 0.150443
have -0.273493 -0.054316 0.329356 0.498330 -0.171322 -0.173819 -0.038141 0.080310 -0.228624 -0.244728 -0.251590 0.077982 0.681322 1.029643 -0.284828 -0.010497 0.129314 -0.036267 -0.022307 -0.254491 -0.208730 -0.183022 -0.236392 0.354510 -0.053531 0.260234 0.281891 -0.010545 -0.113888 0.043279 0.343573 -0.089001 0.214407 -0.077106 -0.021324 -0.133625 0.148149 -0.101434 -0.045759 0.089264 -0.309930 -0.871437 -0.087941 0.102193 0.123664 -0.236972 0.152325 0.402228 0.148581 -0.140163
by 0.010382 0.056388 -0.169921 0.487636 -0.036134 -0.109106 -0.196076 -0.914170 0.050521 -0.071001 0.070813 -0.053965 0.667918 0.555342 0.116448 0.150888 0.103591 0.013510 0.173163 -0.137353 0.068179 0.140804 -0.253351 0.132527 -0.115987 0.146629 0.173352 0.022237 -0.046757 0.198745 0.360071 0.250582 0.070117 -0.096892 -0.136202 0.127917 0.030028 0.068310 -0.109875 0.202837 0.063955 -0.152247 -0.120040 -0.138070 -0.055734 -0.134773 -0.394158 0.026399 0.001519 -0.071981
this 0.277318 0.161740 -0.400590 1.113316 -0.008360 -0.064138 -0.102018 -0.363422 0.155211 -0.245787 0.090801 -0.157832 0.681039 0.926950 0.252785 0.007119 -0.160154 0.053482 -0.093933 0.183113 -0.151784 -0.205384 -0.137942 -0.127984 0.161219 0.149129 -0.215421 -0.040886 -0.116301 -0.057816 0.052619 0.111804 0.068640 -0.011739 0.057053 -0.247355 0.290256 0.092931 0.097116 -0.290687 0.045419 -0.028678 -0.092134 0.027656 0.063485 -0.148580 -0.018110 0.099518 -0.305443 0.005326
which -0.050231 0.185945 0.142258 0.471112 0.175205 -0.284816 -0.290826 -0.988591 -0.186314 0.179904 0.192923 0.198406 0.505157 0.571277 0.118303 0.122616 0.162953 -0.001630 -0.013159 -0.276383 -0.108223 0.078370 -0.119353 0.076317 0.112314 0.066582 -0.001366 -0.096493 0.125159 -0.036907 -0.099296 0.084566 0.095402 0.156954 -0.074529 0.189316 -0.176896 -0.012455 -0.041154 0.110632 0.022994 -0.379687 -0.378536 0.195678 0.122615 -0.173892 0.293003 0.284366 -0.060914 0.027058
me -0.075167 0.082983 0.120920 1.127247 0.150227 -0.529185 -0.356754 0.261984 -0.224128 0.022509 -0.165942 0.393737 0.606662 0.398086 -0.156412 -0.108870 -0.118365 -0.281296 0.027195 -0.248778 0.149789 0.156313 0.200891 0.182089 0.216805 0.116037 -0.130013 -0.085008 0.078363 0.044663 0.195162 -0.304963 0.260733 -0.297230 -0.371741 -0.231907 -0.244013 0.190605 -0.061508 0.121872 -0.291659 -0.337663 0.067847 0.045780 0.164095 0.132108 0.198032 0.133282 -0.034418 0.123140
all -0.219363 0.169973 -0.307592 0.525655 0.038193 -0.370566 -0.065986 -0.779207 -0.068269 -0.257572 -0.012514 -0.005280 0.579933 0.620942 0.153362 -0.260433 -0.089726 -0.111058 0.112378 0.072904 -0.033405 -0.066217 -0.309953 0.030279 -0.041390 -0.134815 -0.192381 -0.261312 0.129605 0.133383 -0.491920 -0.162296 -0.014319 0.129535 -0.171745 -0.167749 0.342451 -0.068718 0.264723 -0.068494 -0.047201 -0.138442 0.222257 -0.143981 0.178149 -0.053342 0.017082 0.084072 -0.236848 -0.026509
said 0.026570 0.090850 -0.236561 1.078668 -0.185597 -0.912140 0.342268 0.404708 0.188571 0.194620 -0.141545 0.375333 0.620347 0.404035 0.077878 0.171918 -0.149215 -0.205252 0.387878 -0.416682 0.006435 -0.046462 -0.099492 -0.090035 0.139877 0.182330 0.144022 -0.108648 -0.100603 0.170103 -0.141453 -0.217803 0.154130 0.072785 0.092909 -0.352877 -0.061473 -0.302016 0.125934 0.033659 -1.024170 -0.110853 -0.166994 0.321018 0.081848 -0.023151 -0.196942 -0.130311 0.186439 -0.092670
she 0.364348 -0.112953 -0.035455 1.198985 0.275638 -0.508003 0.223874 0.044879 -0.267029 -0.186810 0.105320 0.248153 0.643121 -0.389420 0.339021 -0.428621 -0.048133 -0.494443 -0.045864 -0.637414 0.002022 0.009412 0.053555 -0.239304 -0.027613 -0.080234 0.213715 -0.087881 -0.040704 0.070354 0.051216 -0.189254 0.060368 -0.027116 0.164475 -0.009872 -0.133274 0.189983 0.127088 -0.070721 0.315691 -0.292934 0.094697 0.100062 -0.085844 0.152902 -0.084068 0.016222 0.288640 -0.033369
from -0.005927 -0.351755 -0.092057 0.604107 0.170145 -0.175537 0.161677 -1.018275 -0.016521 0.189995 0.079437 0.031838 0.312181 0.278001 -0.028194 0.153897 -0.075214 0.051581 0.109379 -0.193468 -0.144308 0.340536 0.039625 0.220531 0.074434 0.143907 0.044294 -0.164095 -0.084560 -0.031615 0.107783 0.049640 0.112432 0.041965 0.272153 0.034678 0.066872 0.269979 -0.242589 -0.009003 -0.043747 0.099466 0.101877 0.200471 0.220694 0.114796 -0.211850 0.236824 0.003010 0.124840
or -0.013336 -0.092756 -0.580747 0.970801 -0.096746 0.256685 0.024329 -0.448163 0.078845 0.249548 0.405572 -0.046911 0.897153 1.181898 -0.058475 0.096064 0.010360 -0.156041 -0.060237 0.336293 0.028449 -0.171786 -0.197481 -0.138458 -0.055245 0.050856 -0.059426 0.003879 0.123362 0.085067 0.279313 0.355365 0.043373 0.232942 -0.060608 0.021452 0.369319 0.481327 0.031455 -0.032771 0.349016 -0.264041 0.111404 0.080816 0.004977 -0.018177 0.530320 -0.184561 0.009323 -0.005320
they 0.036393 0.143535 0.365943 0.382357 0.038371 -0.599977 -0.147909 -0.684979 -0.340199 0.176809 -0.292346 -0.000280 0.345128 0.758859 -0.243495 -0.142963 0.181983 -0.994617 -0.225540 -0.112265 -0.034690 0.297940 -0.066078 0.415265 -0.075622 -0.182734 0.029157 -0.341265 -0.086342 -0.026757 0.016111 0.027763 -0.121043 0.051326 0.187301 -0.022279 -0.003168 0.053252 0.044329 -0.148544 0.366378 -0.263366 0.005463 0.077822 -0.108599 0.063733 -0.043466 0.074624 0.261205 0.223680
so 0.123933 -0.003186 -0.081601 0.787955 0.052663 -0.197203 0.185813 -0.265006 -0.175574 -0.079243 0.124578 0.236979 0.511740 0.516816 -0.191729 0.018740 0.100228 -0.479451 0.110266 -0.423873 0.017111 0.003365 0.096705 0.213446 -0.101934 0.001761 0.314441 -0.108385 0.263555 0.109751 -0.031602 -0.178264 -0.011068 0.237483 0.189481 -0.043624 -0.036666 -0.167707 -0.094472 -0.174962 0.146198 -0.565308 -0.083667 -0.199795 0.008932 -0.067452 -0.427605 0.133478 -0.029015 0.051064
are -0.398769 -0.014818 0.020484 0.250903 -0.189903 -0.751520 -0.015879 -0.524772 -0.368120 -0.325881 -0.044185 0.063769 0.063922 1.486548 -0.216220 -0.094828 0.226319 -0.317143 0.112888 -0.070198 -0.171502 -0.235187 0.063261 0.456998 -0.206560 -0.217906 -0.414425 0.157850 -0.058859 0.050494 0.234624 -0.241120 0.290134 0.432348 0.280049 0.134220 -0.228872 -0.084710 0.121526 0.166707 -0.151207 -0.337807 -0.256956 0.279859 0.078619 0.040717 0.194852 -0.208457 -0.056510 0.092664
one -0.116892 0.044833 -0.099630 0.613924 0.135452 -0.549384 -0.040424 -0.723540 -0.021642 0.076873 -0.352566 0.060032 0.133999 0.510501 0.129258 0.463127 0.103072 -0.044862 0.047096 -0.198010 0.162603 -0.305223 -0.193262 -0.081586 -0.006405 0.009119 0.077542 0.162164 -0.230811 0.153757 0.070540 0.153685 -0.090029 0.017768 -0.214219 0.101500 -0.260658 0.066005 -0.122981 -0.142455 0.343113 -0.378660 -0.029712 0.222113 -0.017881 0.186200 0.262740 -0.187153 0.040354 0.036033
were -0.122695 -0.098112 0.017454 0.601908 -0.224426 -0.222117 0.013564 -0.910013 -0.443673 -0.121235 -0.041502 0.006552 0.295694 0.018712 0.029977 -0.238082 -0.276042 -0.514299 0.144034 -0.118825 -0.281162 0.027808 -0.174416 0.569102 -0.137384 -0.102242 0.127159 0.066100 0.013267 0.080179 0.060202 -0.348600 0.085330 0.085853 0.195629 0.104409 0.020038 0.021215 0.050483 0.122055 0.245149 -0.367127 0.143306 0.040311 -0.041833 -0.089784 0.057883 0.089483 0.217795 0.088537
what 0.064507 0.188489 -0.057991 0.686158 -0.091110 -0.727308 -0.213253 0.191760 0.125705 0.244906 -0.133828 0.287570 0.477019 0.859492 0.201319 0.176274 -0.074158 -0.390440 -0.221348 -0.378351 0.008145 0.137925 -0.140156 0.101187 0.290325 -0.002722 0.061495 0.068828 0.444017 0.196265 -0.249596 0.122342 0.051458 0.137554 0.109272 0.007696 -0.326485 0.131725 -0.198339 0.004349 -0.277698 -0.161242 0.109356 0.024868 0.188560 -0.087595 -0.003330 0.313410 0.298250 0.252022
when 0.228431 -0.087097 -0.082356 0.622892 0.144987 -0.739440 -0.099350 -0.467022 0.182485 0.159088 0.220614 0.221486 0.439074 -0.032785 0.059598 -0.159640 0.081714 -0.283355 0.085941 -0.424171 -0.013405 0.263156 0.304213 0.418440 -0.091561 0.072337 0.043692 -0.018257 0.090560 -0.112760 -0.181050 -0.070865 -0.138445 -0.038080 -0.008688 0.025610 0.208117 0.048942 0.109966 -0.150653 -0.315165 -0.233033 -0.024237 -0.097313 0.238092 -0.065488 -0.041325 0.279323 0.159972 -0.291748
no 0.348998 0.095208 0.468480 1.112894 -0.199080 -0.400808 0.028536 -0.176491 0.054045 0.047850 0.044483 -0.103936 0.084229 0.999750 0.306961 0.364273 -0.087872 -0.165682 0.047381 -0.112845 0.129858 0.286319 -0.084882 -0.177776 0.317628 0.180999 -0.020188 0.188103 -0.022222 -0.426665 -0.175814 -0.443105 0.156971 -0.212618 0.027171 0.471435 -0.171218 0.171342 0.244330 -0.132382 0.403449 -0.652857 -0.354515 0.284332 0.172831 0.126948 -0.210391 -0.106194 0.418627 0.039004
if -0.036020 0.022509 0.218406 1.121078 -0.412102 -0.295486 0.095517 0.284247 0.051674 0.035819 0.014918 0.496198 0.722904 0.641312 0.076124 0.224808 0.226097 -0.413478 0.035332 -0.026299 0.093654 -0.113099 0.075491 0.291858 0.202298 -0.292914 0.153341 -0.066551 0.380801 0.142354 0.044013 -0.048534 -0.146241 0.167629 0.142990 0.110653 0.205559 -0.045031 -0.103538 0.338778 -0.236453 -0.536406 -0.249508 -0.131130 -0.047076 -0.126789 -0.148784 0.132328 0.023359 -0.056491
there 0.212140 0.028513 0.178300 0.710467 -0.035839 -0.491646 -0.340277 -0.675433 0.277289 0.361550 -0.051689 0.549502 0.184466 0.426703 -0.098331 0.336157 -0.026240 -0.220405 0.166338 -0.124573 0.058496 -0.175324 0.106956 0.302953 0.289320 -0.359346 0.086976 0.168862 -0.065393 0.029981 0.019424 0.070230 0.183944 -0.210757 -0.223199 0.087955 -0.403494 -0.322251 0.014935 -0.221380 0.295076 -0.671693 -0.228528 -0.165354 -0.150386 0.255885 -0.023680 0.001601 0.218949 -0.188900
who -0.125843 0.423698 -0.037319 0.413084 0.163025 -0.375171 -0.004127 -0.579220 0.125084 0.292560 0.058030 -0.120927 0.621482 0.239067 0.027549 0.619423 -0.125455 -0.506190 0.054157 -0.604670 0.054307 -0.159455 -0.513391 -0.077684 -0.104083 0.167627 0.017340 -0.057872 0.007343 0.053222 -0.019747 0.027169 -0.069878 0.240765 -0.061853 0.106800 -0.148882 0.203236 -0.345501 0.046719 -0.245415 -0.088616 -0.086007 -0.091413 -0.099747 0.048211 -0.040152 -0.125326 0.193368 0.176970
we 0.047623 -0.161394 -0.081765 0.247293 -0.165838 -1.031793 0.013803 -0.333067 -0.118423 -0.326809 -0.071421 0.428558 0.197725 1.063791 -0.110170 0.093591 0.214953 -0.095034 -0.320692 0.084883 0.021935 0.051381 -0.126015 0.032059 0.104527 -0.112445 -0.104966 -0.098870 0.225531 -0.033008 0.004077 0.117923 -0.114744 0.118916 0.791093 -0.396633 0.151443 -0.475734 -0.245000 -0.061355 0.136566 -0.475791 0.130420 -0.042895 -0.224581 0.208833 0.325849 0.090189 0.262193 0.223073
will -0.320940 0.073157 -0.017264 0.629721 -0.173572 -0.440291 0.126021 0.032414 -0.089544 0.120938 -0.193126 0.257667 0.622542 1.426244 -0.210755 0.103250 0.197845 0.050997 0.150398 -0.104085 0.229649 0.190326 0.280888 0.048406 0.042649 0.072506 0.074458 0.298229 -0.334276 -0.034141 0.198530 -0.262503 -0.151530 0.143920 0.059672 0.239534 -0.028173 -0.336427 -0.122736 0.105706 -0.257124 0.229990 -0.276632 0.170041 0.069831 -0.359991 0.060122 -0.277124 0.275199 -0.252689
an 0.298368 -0.199499 -0.189758 0.973393 -0.108996 0.169785 0.021807 -0.689632 -0.337202 0.062716 -0.346275 -0.066012 0.306067 0.270145 0.099515 0.091183 -0.212964 -0.018377 0.029476 -0.416062 0.310459 0.023772 0.242196 -0.147545 0.095450 0.020241 -0.002736 0.101976 -0.016432 -0.026356 0.317327 0.111291 0.032799 0.032548 -0.182038 -0.208948 -0.190167 -0.054680 0.128547 -0.171001 -0.231398 -0.138118 -0.151450 0.300418 0.061506 -0.228056 0.091632 0.012005 -0.141885 0.183790
then 0.062566 0.081716 -0.014617 0.681995 -0.025991 -0.390197 0.204292 -0.886878 0.051187 0.159258 -0.273760 0.397967 0.271144 -0.016546 0.440668 0.075383 0.055351 -0.068480 -0.098351 -0.001608 -0.127345 0.186296 0.131917 -0.065382 0.127967 -0.246391 0.187393 0.191000 0.018644 0.048119 0.170763 0.082334 -0.089683 -0.279091 -0.017803 0.205132 0.208230 -0.084897 0.083839 0.087446 -0.303117 0.122028 -0.051603 -0.135003 -0.005977 0.191190 0.094271 0.161955 0.173696 0.135726
their -0.267954 -0.046293 -0.034708 0.186852 -0.037049 -0.027163 -0.185862 -1.375857 -0.464010 -0.120491 -0.045721 -0.081626 0.112407 0.545064 0.038769 -0.239923 0.075547 -0.899080 0.084887 0.265660 -0.142061 0.240163 -0.193520 0.221599 0.155777 0.032440 0.074859 0.139786 0.018397 0.110813 -0.172239 -0.087036 0.109821 0.111385 -0.150189 -0.005760 0.025501 -0.037693 0.013631 0.036847 0.362007 -0.039150 0.246966 -0.026708 -0.001981 -0.112286 0.098483 0.216306 0.423963 0.064938
would -0.181011 -0.207257 0.019362 1.069404 -0.082425 0.016381 0.007538 0.194916 -0.192932 0.381852 -0.136988 0.083698 0.743358 0.938974 -0.248384 -0.027384 -0.273412 -0.226235 0.022953 -0.486674 0.143796 0.157453 0.233361 0.148787 0.120340 0.161381 0.275672 -0.243182 -0.073392 -0.177526 0.135064 -0.117763 0.015131 -0.041473 0.111433 0.152846 0.038354 -0.130066 0.160894 0.091842 0.241485 -0.036562 0.121779 0.141720 -0.116695 -0.179950 0.162833 -0.178005 0.285215 -0.043274
them 0.038659 0.108461 0.044745 0.827087 0.201676 -0.371637 -0.156965 -0.518994 -0.053174 -0.123078 -0.332887 -0.060051 0.207451 0.575384 -0.092438 -0.076241 0.207995 -0.636206 -0.081944 -0.160364 -0.102689 0.061971 -0.107320 0.279009 0.045674 0.229628 -0.007263 0.128191 0.099050 0.029941 0.132377 -0.153750 -0.165300 -0.317159 -0.099193 -0.110813 -0.370188 -0.131641 0.054836 0.225882 0.190327 -0.166582 0.130607 0.165179 0.317534 0.087001 0.095171 -0.003552 0.210160 -0.166960
been 0.544166 0.108517 0.154064 0.768826 -0.084610 0.049309 0.329382 -0.406846 -0.287881 -0.470407 -0.386056 -0.066560 0.814442 0.213173 0.070492 0.540854 -0.005268 -0.316829 -0.232675 -0.719711 0.054246 -0.157634 -0.182102 0.485789 0.336273 0.195356 -0.178339 -0.061860 0.302952 -0.216625 -0.185490 -0.057495 -0.119044 0.058015 0.319454 0.189168 0.169099 0.231381 0.157915 0.284707 0.477901 -0.665316 0.072947 0.066945 -0.152256 -0.158726 -0.133442 0.061571 -0.112386 -0.292919
do -0.527228 -0.285447 -0.094116 1.085650 -0.147603 -0.796906 0.083428 0.394437 -0.551524 -0.044612 0.076784 -0.031171 0.867998 1.429666 -0.221353 0.079821 -0.051520 -0.250816 0.107167 0.263417 0.292442 -0.040562 -0.335854 0.007558 -0.101634 0.351962 -0.060385 -0.483905 0.150433 0.116825 -0.048878 0.081959 0.226782 -0.125260 0.182048 0.227688 -0.447632 0.095628 0.387194 -0.108927 -0.358725 -0.155195 0.186793 -0.328886 -0.017191 0.007390 -0.071264 0.057045 0.111159 -0.095010
your -0.201613 0.230068 0.425120 0.828350 -0.138470 -0.795237 -0.042676 0.255491 -0.047467 -0.195291 -0.074013 0.216824 0.376539 1.175193 0.091863 -0.072503 0.000287 -0.018469 -0.014189 -0.217988 -0.158914 0.151987 0.156015 -0.360763 0.142303 0.489247 -0.130568 0.040910 -0.741059 -0.231820 0.277887 -0.300262 0.023680 0.192267 -0.312482 -0.442594 0.250389 0.036437 -0.503657 0.238517 -0.465363 -0.066855 -0.117786 -0.022567 0.002981 -0.252525 0.184086 -0.046643 -0.113247 0.027892
now -0.065402 0.029542 0.084316 0.750101 0.218567 -0.463774 -0.157528 -0.482251 -0.083618 0.145356 -0.296587 0.222237 0.357726 0.163694 0.051007 -0.015286 0.077379 -0.375733 0.171112 -0.161991 0.195146 -0.127183 0.094839 0.189276 0.232116 0.221477 0.035431 0.004609 0.070315 -0.103460 -0.176492 -0.109652 0.357058 -0.049690 -0.033443 -0.176380 0.110057 0.383584 -0.057492 -0.113107 -0.094332 -0.399435 -0.366807 0.192258 -0.079298 -0.013584 -0.210414 -0.001609 -0.096148 -0.082880
out -0.051446 -0.064599 -0.152087 1.230537 0.108483 -0.621682 -0.002729 -0.575615 0.012302 -0.190975 -0.238587 0.067774 -0.207674 0.138307 0.000036 0.222514 0.090863 -0.114947 -0.084571 0.060803 -0.220473 0.078061 -0.046276 -0.076549 0.202174 0.136265 -0.016060 0.019232 -0.055554 0.153052 0.070020 0.176591 -0.203061 -0.064957 0.076649 0.112760 -0.185356 0.029509 -0.276618 0.294454 -0.195628 -0.042284 0.159873 -0.214224 0.229309 -0.280129 0.305955 0.029433 0.288377 0.116660
more 0.489863 -0.013396 0.529370 0.719586 0.385942 -0.130523 -0.436551 -0.399117 0.091004 -0.041311 -0.122149 -0.066040 0.172372 0.871390 0.123637 0.023115 -0.092107 0.089001 0.007913 -0.252981 -0.017207 -0.111352 0.147643 0.248939 -0.281505 -0.268560 0.539887 0.065040 0.415708 -0.150503 -0.097069 -0.101565 0.196987 0.254467 -0.025655 0.031304 -0.499276 0.160918 -0.019991 -0.263219 0.397041 -0.266293 0.267724 0.115983 0.219236 0.021790 0.241071 -0.416752 -0.029005 -0.407622
up -0.009068 -0.000476 -0.168668 1.280519 0.129798 -0.339824 0.043121 -0.737178 0.112324 -0.063520 -0.074101 0.293663 -0.064877 -0.186931 0.134943 0.078292 0.317998 -0.404269 -0.041090 -0.149422 -0.024757 0.058917 0.170294 0.411966 0.128616 0.144449 -0.134638 0.029106 -0.128285 0.221361 0.255648 0.058916 0.080636 -0.376707 0.014258 -0.189452 -0.181305 0.036461 0.164961 0.297918 -0.139142 0.199889 0.201868 0.159916 -0.137123 -0.244062 0.417880 0.035340 0.159218 0.228902
man -0.288670 0.272447 -0.448442 0.720938 0.086388 -0.058973 0.074832 -0.807965 0.077069 0.136090 -0.107971 0.314935 -0.015261 0.372067 -0.001282 0.411236 0.088030 -0.146124 -0.229074 -0.775316 -0.044496 -0.142217 -0.292036 -0.237058 -0.186329 -0.311957 0.339499 -0.182033 -0.236495 -0.324902 0.457529 0.036801 0.364812 -0.082638 -0.107127 -0.213976 -0.500021 -0.110993 -0.414890 -0.034915 -0.412891 -0.175126 -0.114630 -0.239811 -0.154054 0.421893 0.214871 -0.166764 0.193763 -0.118550
into 0.249442 0.237400 0.147743 0.926811 0.056112 -0.490976 0.001911 -0.872112 -0.006318 -0.221304 -0.084959 0.266456 -0.170712 -0.017064 -0.211415 0.192557 0.373175 0.056336 -0.070745 -0.118512 -0.103898 0.284217 -0.134933 0.187453 -0.109359 -0.076692 0.279747 -0.013284 0.073009 -0.193058 0.380213 0.062876 0.328635 -0.133364 0.191501 0.263279 0.180507 -0.077364 0.004765 0.082667 0.090988 -0.160031 -0.058435 -0.108456 0.048468 -0.398336 -0.074314 -0.087908 0.087385 -0.167025
some 0.167538 0.185321 -0.132000 0.477530 0.123680 -0.170781 -0.262401 -0.855154 -0.020055 -0.047854 -0.064609 0.083786 0.452192 0.525321 0.079464 0.187132 0.065045 -0.278037 -0.090950 -0.355615 -0.178625 0.146471 0.085280 0.368243 0.180105 0.263960 -0.329121 -0.052980 0.167571 -0.048314 0.233463 0.081305 -0.033754 -0.145101 -0.083021 0.020625 -0.185818 0.080148 -0.043718 0.217846 0.155666 -0.395468 0.320703 0.169828 -0.158635 -0.060290 0.212950 0.009330 0.205299 -0.035864
could 0.035005 -0.143400 0.016224 1.334874 -0.455960 -0.334957 0.165941 -0.088990 -0.401602 0.266235 0.072020 -0.111552 0.622332 0.433449 -0.017414 -0.370866 0.243028 -0.148158 0.292830 -0.471268 -0.157540 0.056130 0.459738 0.216305 0.337344 0.319373 0.292908 0.036406 0.234557 0.174884 0.219773 -0.217125 0.071214 0.176949 0.271792 -0.099083 -0.221362 0.000723 -0.223778 0.140222 0.502550 0.182789 -0.041277 -0.044161 0.231438 0.005767 -0.150294 -0.324868 0.295338 -0.216773
has -0.286979 0.176440 0.024598 0.548001 -0.016378 0.237134 -0.073626 -0.341151 0.248547 0.258988 -0.566210 0.341515 0.644775 0.830779 0.201193 -0.133389 0.102248 0.181431 -0.096593 -0.633938 -0.081918 0.098240 0.077106 0.040305 -0.446121 0.177775 0.282435 0.324517 -0.060355 -0.174488 0.190355 0.134382 0.274259 -0.117755 0.160200 0.239773 0.118193 0.156279 -0.206116 0.022588 -0.411663 -0.645906 -0.504701 0.180479 0.227881 -0.073499 -0.076423 -0.057471 0.212992 -0.137828
only 0.252537 -0.238163 0.180830 0.507638 -0.084565 -0.379099 -0.025912 -0.575280 -0.217724 -0.048990 -0.141197 0.018583 0.517430 0.812257 0.119674 0.029859 0.278951 0.147721 0.212762 -0.294988 0.014205 0.050978 0.038172 0.049276 0.020008 -0.213283 0.052587 -0.107740 -0.028811 0.227766 -0.104735 0.064334 0.121365 -0.210987 0.067857 0.107251 -0.263872 0.099693 -0.081003 0.112563 -0.100158 -0.416313 -0.255669 -0.061290 -0.028209 -0.063066 -0.102858 0.027598 0.130145 -0.093489
any 0.480700 0.000436 -0.510843 1.454486 -0.303614 0.147033 -0.100809 -0.123485 -0.154229 0.048356 0.246080 -0.395841 0.417002 1.461622 0.342891 0.083310 0.221090 -0.011486 -0.004637 0.247269 0.328922 -0.177627 -0.018631 -0.213188 -0.078044 -0.005078 -0.135170 0.167321 0.492994 -0.036885 0.499472 0.142112 -0.401387 0.159755 -0.110190 -0.309074 0.109122 0.428350 -0.219672 -0.095669 0.496660 -0.355330 0.148318 -0.187653 -0.208770 0.074856 0.098012 -0.131352 -0.387629 -0.012471
very 0.102168 0.349945 -0.148142 0.779965 0.291903 -0.304059 0.036072 -0.275064 -0.091785 0.283159 0.243886 0.506275 0.521683 0.288446 -0.121278 0.301316 0.012650 -0.030697 0.100872 -0.289280 -0.030843 -0.286011 0.040086 0.085955 0.075672 -0.064312 0.043449 -0.151241 -0.275832 0.238002 0.074613 0.057348 -0.127585 0.010671 -0.169430 -0.048038 -0.292403 -0.383468 0.118037 -0.423657 -0.163764 -0.471352 0.063942 -0.202591 0.001426 -0.061799 -0.118420 -0.061475 -0.066826 -0.161215
like -0.103303 0.149804 -0.295591 0.787306 0.188763 -0.368552 0.062363 -0.857014 -0.276484 0.150108 -0.054885 0.387015 0.076647 0.161116 -0.153224 0.033640 -0.168946 -0.163224 0.035657 -0.375286 -0.096982 0.366470 -0.157755 -0.055393 0.105504 0.061457 0.321067 -0.199171 0.189980 -0.125146 0.219223 0.093627 0.218781 -0.107140 -0.269570 0.148662 -0.138870 0.139393 0.092336 0.043817 -0.173132 -0.241343 0.049630 -0.015198 -0.055319 0.320234 -0.304536 -0.388877 0.134208 0.028336
did -0.220169 -0.403493 -0.482923 1.251057 -0.150667 -0.273690 0.471419 0.388387 -0.554365 0.329393 -0.305477 -0.212011 0.982395 0.631200 0.062255 -0.383984 0.268238 -0.281460 0.062652 -0.545614 0.032817 -0.126555 0.261491 0.132302 0.358415 0.068427 0.352249 0.098633 0.253913 0.359747 -0.020067 0.017567 0.487914 0.353896 0.244504 0.235413 -0.101195 0.344055 0.245081 -0.363559 -0.026537 0.081264 0.026748 -0.058067 -0.183483 0.001689 -0.102781 -0.255771 0.345472 -0.163189
time 0.245556 -0.009529 -0.210378 0.717595 0.052257 -0.163762 0.178788 -0.302449 0.172415 0.071170 -0.182252 0.070344 0.898524 0.209151 0.333919 -0.319327 -0.015927 0.113061 -0.281348 -0.365874 0.150008 -0.007342 -0.204878 0.735153 0.301465 -0.214400 0.004853 -0.061183 -0.038121 -0.185749 -0.407335 -0.209794 -0.302198 -0.269304 -0.095814 0.134299 -0.280291 -0.004575 -0.461013 -0.345450 -0.118878 -0.314173 0.026256 -0.225658 -0.200969 -0.192841 0.241838 0.112722 0.025448 0.180075
its 0.234507 0.011197 0.182061 0.975569 0.247125 0.127056 -0.010559 -1.357308 -0.422034 -0.283959 0.066283 0.243241 0.032988 0.205410 -0.264269 -0.259740 0.288382 0.307399 0.224579 0.254133 -0.138785 0.262958 0.212967 -0.041927 0.303791 0.004288 -0.056653 -0.184079 -0.123756 -0.251641 -0.095753 -0.155118 -0.103645 -0.094954 -0.299723 0.012955 -0.168907 0.091384 -0.082118 0.072960 0.271706 -0.333929 0.252857 -0.160822 0.060850 -0.384807 0.218314 -0.124009 0.189377 0.016644
than 0.329784 -0.037454 0.393816 0.520943 -0.207323 -0.073983 -0.267110 -0.350565 0.633591 0.230666 -0.038012 0.036198 0.499836 0.821052 -0.027440 0.127690 -0.506647 -0.286062 0.084334 -0.187124 -0.234200 0.067434 0.192074 0.006223 -0.180469 0.021542 0.580517 -0.292157 0.236205 -0.124428 -0.052260 0.060268 0.052178 0.426713 -0.110816 0.343283 -0.445540 0.269428 0.130348 -0.545311 0.518901 -0.571482 0.052770 -0.133058 0.097788 -0.401355 0.398615 -0.390817 0.094156 -0.379559
other -0.372877 -0.179465 0.199703 0.825361 0.157836 -0.261329 -0.462919 -0.882220 -0.319597 -0.010174 0.182170 -0.216375 0.129813 0.960019 -0.068359 0.021467 0.314264 -0.203618 0.008029 0.150054 0.335030 -0.369223 -0.628884 0.030685 -0.175926 -0.148895 0.049595 0.467710 -0.165593 -0.343292 -0.252338 0.227834 -0.085676 0.362336 -0.189673 0.179573 -0.150140 0.131799 -0.248855 0.208041 0.456878 -0.344932 -0.053890 0.306502 0.260480 0.307675 0.397285 -0.270649 -0.240309 0.324166
before 0.493021 0.163026 0.164780 1.183390 -0.371247 -0.271483 -0.138564 -0.399382 0.312846 -0.161627 0.184574 0.007801 0.553454 0.076092 0.210810 0.151600 0.106508 -0.086580 -0.082487 -0.117516 -0.315054 -0.244990 -0.226865 0.435526 -0.083367 -0.094656 0.002512 -0.029501 0.172156 0.169241 0.092740 0.013633 0.024563 -0.087705 0.146481 0.001497 0.564046 0.100808 0.042745 -0.113826 0.273646 -0.145293 0.000040 0.315213 -0.220955 -0.068392 -0.021261 -0.070365 -0.121709 -0.230013
about 0.209410 -0.266354 0.056972 1.320497 0.048098 -0.826443 -0.077730 -0.179202 0.078402 -0.051005 0.073311 0.281462 0.106635 0.554179 -0.166740 -0.139138 -0.160824 -0.078344 0.223464 -0.345036 0.333670 -0.213882 -0.516012 0.449317 0.053846 0.049179 -0.445673 -0.262217 -0.021627 0.058787 -0.325876 -0.047317 -0.002003 0.024562 0.161549 -0.028809 0.063470 0.454053 0.011142 -0.289832 -0.170409 -0.154872 0.285164 0.201870 0.053292 0.018560 0.178353 -0.407391 0.077441 0.042269
see 0.033429 -0.073182 -0.173524 1.181068 0.088056 -0.974248 -0.183019 0.154875 -0.005564 -0.290238 0.228922 0.187145 -0.055872 0.736039 -0.081276 -0.206930 0.074362 -0.187861 0.295335 -0.084580 -0.098303 -0.366511 0.123828 0.182258 0.215425 -0.174321 0.251858 -0.065761 -0.253248 0.121147 -0.072717 -0.061305 -0.047050 -0.209158 -0.166508 0.096283 0.063687 0.172815 -0.133516 -0.221780 -0.617781 -0.451001 -0.045167 -0.144042 0.104641 -0.148922 0.175734 0.015916 0.309772 -0.214804
such 0.514037 0.100148 -0.013183 0.870662 -0.071959 0.170203 0.259027 -0.396491 -0.330256 0.257108 -0.034232 0.503309 0.343171 0.669801 0.049563 -0.049800 0.187279 -0.251915 -0.175209 -0.300746 -0.186566 -0.339556 0.038086 0.167136 0.500472 0.023985 0.025969 0.338321 0.095336 0.000102 0.322447 -0.010254 -0.131125 -0.265758 0.072336 -0.088697 -0.138095 -0.255444 -0.131577 -0.132212 0.236048 -0.812341 0.084754 0.055973 -0.021974 -0.090269 -0.183995 0.097989 -0.300447 0.199181
must -0.030265 0.110367 -0.319751 0.981800 -0.032125 -0.270231 0.213547 0.088741 -0.163467 -0.008787 -0.307618 0.225959 0.564646 1.114668 -0.257254 -0.208852 0.152282 0.201733 0.211408 -0.215341 0.058845 0.193437 0.047820 0.340137 0.306072 0.009056 0.148403 0.091539 0.093541 -0.231215 0.085259 -0.336681 0.277450 -0.161803 -0.079467 0.283942 0.713617 -0.280147 0.033169 0.222850 0.132203 -0.205624 -0.052046 0.387257 0.033792 -0.023479 0.214756 0.203675 0.175711 0.124107
know -0.134303 -0.126794 -0.445477 0.866333 -0.293460 -0.933107 0.223355 0.600688 0.068946 -0.117468 0.160915 0.011311 0.421954 1.209661 -0.335303 -0.015416 0.187390 -0.121745 0.385116 -0.410812 -0.202466 -0.291955 0.095238 -0.177346 0.144942 0.063684 0.243650 0.048931 0.151009 -0.006066 -0.129965 -0.373435 0.307044 0.164044 -0.291352 -0.160255 -0.202780 0.143430 -0.046017 -0.425029 -0.497398 -0.943703 0.307278 0.031671 0.013304 0.110576 -0.454392 -0.013235 0.257731 -0.058285
should 0.007199 0.052293 0.049189 0.575533 -0.169241 -0.188473 -0.017317 -0.046826 -0.050058 -0.108682 -0.303885 -0.063597 0.712395 1.118646 -0.300651 -0.337779 -0.015241 -0.052047 0.186967 -0.372665 -0.068349 -0.099070 0.489376 0.378896 0.140115 0.031003 0.314243 0.221706 0.158155 -0.141368 0.123780 -0.140412 0.135289 -0.082585 -0.096796 0.060223 0.453943 -0.463930 0.170580 -0.032231 -0.000657 0.087550 -0.038980 0.103543 -0.198393 0.057000 0.105512 -0.238803 0.265338 -0.176853
may 0.001760 -0.103747 -0.115986 0.590944 -0.415447 -0.209785 0.205150 -0.256357 -0.106964 0.141964 -0.281028 0.457397 0.577658 1.471569 0.054407 -0.099936 0.024995 0.176198 0.193333 -0.206738 0.057203 -0.134540 0.188375 -0.044491 0.317436 -0.278401 0.143875 0.048554 -0.284057 -0.040592 0.229185 0.005565 0.124435 -0.008659 -0.104864 0.208984 0.064090 -0.225958 0.131646 0.226580 0.032576 0.134357 -0.129016 0.522780 -0.124386 0.040141 0.053338 -0.192688 0.261279 0.402405
how -0.094972 0.249855 0.102492 1.045274 -0.028066 -0.666551 -0.202855 0.008213 0.090225 -0.162744 0.597389 0.385501 0.051915 0.837594 0.014731 0.133859 -0.328563 -0.213468 0.276221 -0.527326 0.109697 -0.192475 0.081951 -0.047750 -0.224402 0.445435 -0.241212 -0.157706 0.049419 0.136703 -0.141217 0.093672 -0.111175 0.132877 -0.199667 -0.165624 0.484766 0.215257 -0.062523 -0.068126 -0.232656 -0.125270 0.128818 -0.093952 0.395622 -0.291792 0.086361 0.225369 0.363609 0.133285
well 0.098328 0.213570 -0.096924 0.675441 -0.222904 -0.263990 -0.100783 -0.229231 -0.179031 -0.111558 -0.000679 0.200408 0.335672 0.484676 0.074102 0.530026 0.239616 -0.286843 0.058434 -0.547814 0.254283 -0.281358 0.176064 0.024708 0.114593 -0.259434 0.451603 0.138423 0.062603 0.167699 0.315881 -0.556272 0.097542 0.134066 -0.027683 -0.081317 0.050755 -0.167572 -0.175873 -0.066098 -0.122323 -0.465052 -0.016070 -0.020646 0.245992 -0.250605 -0.288740 0.040178 0.117234 0.194000
our 0.076449 -0.021351 -0.181192 0.020149 -0.219119 -0.568760 -0.177509 -0.773759 -0.079485 -0.440387 -0.040745 0.356324 0.098032 1.072865 -0.046396 -0.048474 -0.234217 -0.132481 -0.084110 0.207874 0.134961 0.381252 0.203568 0.260298 -0.061027 0.154014 -0.192077 0.073118 -0.144266 -0.217962 0.008345 0.030836 0.022026 0.018449 0.280468 0.082425 -0.126095 -0.493215 -0.374354 -0.247426 -0.200566 -0.340455 0.326882 0.017801 -0.206885 -0.091111 0.150081 0.126468 0.614116 -0.084946
can 0.236557 -0.024162 -0.034748 1.040323 -0.348275 -0.390759 -0.108560 -0.000490 -0.131881 0.407573 -0.071085 0.473058 0.218171 1.622678 -0.409965 0.079201 -0.100554 0.219842 0.200281 -0.088262 -0.004898 -0.277657 0.216422 0.136393 -0.310598 -0.206913 -0.191180 0.275407 -0.013571 0.241392 -0.093315 -0.158928 -0.194128 -0.174327 -0.189727 0.096805 -0.034205 -0.030145 -0.131051 0.126295 -0.026177 -0.127685 -0.398344 -0.040080 0.508914 0.074671 0.173083 -0.573065 0.457621 -0.136473
little 0.095003 0.192725 -0.126042 0.986205 -0.204653 -0.380995 0.035483 -0.466388 -0.318543 0.114700 0.007984 0.567109 0.221896 -0.253269 0.133719 0.225422 -0.104522 -0.234516 -0.132534 -0.414421 0.020691 0.093719 0.096423 0.339668 0.107798 -0.280329 0.090269 -0.257155 -0.175871 0.028429 0.165561 -0.084937 0.257422 0.034389 -0.068050 0.088048 -0.241588 -0.232333 -0.009115 -0.042275 -0.180908 -0.453968 0.116420 -0.112409 -0.288084 -0.201573 0.430875 -0.170913 0.209425 0.050869
am -0.092121 0.131921 -0.045356 0.639850 -0.316206 -0.950231 -0.060479 0.538465 -0.215437 -0.006037 -0.745748 0.272486 0.691877 0.862932 -0.345738 -0.145120 -0.280846 -0.055702 0.022990 -0.097441 -0.027472 -0.261282 0.787845 0.250629 0.238659 0.068553 0.352079 0.379017 -0.557358 0.171917 0.277948 -0.491911 0.468588 0.310738 -0.581398 -0.290624 -0.369664 0.191266 0.073198 -0.124870 -0.816586 -0.544866 0.346280 -0.206968 -0.040396 0.302561 0.217554 -0.139194 -0.202347 0.222902
these 0.103634 -0.159132 -0.113301 -0.027105 -0.213510 -0.395704 -0.095393 -0.761205 -0.325103 0.200640 -0.173189 0.034833 0.576888 0.749502 0.028755 0.011249 -0.121392 -0.323663 0.174410 -0.142207 -0.396852 0.113449 -0.165571 0.284625 0.023200 -0.070058 -0.122948 -0.040135 0.084700 0.192913 -0.100550 0.000971 -0.022721 -0.161889 -0.159941 0.026386 -0.233484 -0.243558 -0.160792 0.251011 -0.063915 -0.243037 -0.039973 0.214578 0.009659 0.114608 -0.033505 -0.170788 0.225033 0.039697
upon 0.012481 -0.195826 0.105846 1.184050 -0.019917 -0.464653 -0.185989 -0.843397 0.190572 -0.023662 -0.075284 0.211281 0.067440 -0.015304 0.059465 -0.058274 0.024573 0.103126 0.005946 -0.088001 -0.466512 0.192933 0.031833 0.070137 -0.126666 -0.189175 0.207850 0.368640 -0.056747 0.036846 0.239230 0.054294 0.078465 -0.246603 -0.002561 0.415747 0.326704 0.255061 -0.109528 0.285713 0.012404 0.120302 -0.153860 0.089814 -0.079815 0.056266 -0.056710 -0.177514 -0.280234 -0.041545
down 0.107672 0.342036 0.002768 1.371198 -0.069187 -0.899106 0.237927 -0.867235 -0.060899 -0.112797 -0.204733 0.584046 0.021680 -0.312590 0.117210 0.173088 -0.019926 -0.672201 -0.189049 0.112983 0.056518 0.327718 0.270626 0.418881 -0.251356 0.098063 0.217920 -0.009425 -0.381864 -0.079682 0.184539 -0.110966 0.337275 -0.048767 -0.058688 0.030415 -0.037390 -0.000229 0.142362 0.128856 -0.124749 0.350721 -0.146437 0.013578 -0.225837 -0.116952 0.043309 0.284085 0.220688 0.047654
two 0.123350 -0.423213 0.153484 0.389450 -0.142610 -0.488561 0.077297 -1.013031 -0.103291 -0.165012 -0.320481 -0.009400 0.590552 -0.020748 0.102215 0.422831 0.047440 -0.076090 0.364293 -0.152826 -0.156950 -0.284266 -0.283162 0.797142 -0.076369 -0.264050 -0.076131 0.242898 0.254759 -0.006080 0.210601 0.228397 0.109355 -0.025983 -0.343439 0.310885 -0.483566 0.066133 -0.340009 0.097064 0.264159 -0.009674 0.370324 0.363211 0.317839 0.149449 0.479438 -0.094446 -0.271625 0.230230
over -0.037965 0.088231 -0.384174 1.024622 -0.062818 -0.168294 -0.376694 -1.092539 -0.146771 -0.200174 -0.466215 0.384554 0.059916 -0.229077 -0.352766 0.057924 -0.203875 0.209463 -0.040786 -0.152996 -0.074450 0.303242 -0.275460 0.155181 0.053735 0.076781 0.366366 0.197110 0.076115 0.295064 -0.128300 -0.109504 0.252264 0.077898 -0.099323 -0.048163 0.081146 0.117123 -0.142381 -0.065980 -0.035980 -0.100217 -0.106948 0.328813 -0.116053 -0.054719 0.114321 0.069532 -0.108408 -0.172315
us -0.352120 -0.284116 -0.052972 0.260962 0.073262 -0.567706 0.004882 -0.507382 -0.518311 -0.156556 0.116308 0.343356 0.507449 0.951728 0.109799 0.193014 -0.315421 -0.082578 -0.110439 0.109892 0.045741 0.479811 -0.057588 0.077938 0.011790 -0.076038 -0.189775 0.016880 0.155694 -0.220288 0.105885 -0.245938 0.067019 -0.143465 -0.024801 0.067235 -0.179508 -0.460118 -0.228450 -0.069707 -0.282307 -0.090668 -0.435250 0.653807 -0.075875 0.384682 0.179573 0.315213 0.398826 0.070297
after 0.429647 0.077009 -0.088225 0.502580 0.046556 -0.583818 0.125031 -0.493314 0.028820 -0.047302 -0.306246 0.343543 0.709909 -0.193110 -0.179654 0.151588 0.005278 -0.287739 0.234848 -0.334977 0.202488 0.175681 -0.068738 0.584492 -0.238042 -0.379071 -0.319355 0.128494 0.106352 0.049127 0.019078 0.050725 0.134535 -0.002227 -0.034871 -0.044059 0.036309 0.145189 -0.063595 -0.384155 -0.492797 -0.260348 0.024601 0.389336 -0.057501 0.295850 0.216358 -0.047332 0.143229 -0.248903
himself 0.145344 -0.152816 0.078687 1.184965 -0.238099 -0.092083 0.024963 -0.449468 0.025266 -0.022088 -0.211518 -0.333357 0.132449 0.308684 0.299910 -0.105992 0.103778 -0.280064 -0.079871 -0.739181 0.007088 -0.002140 -0.014641 0.053091 -0.054726 -0.119311 -0.147742 -0.162127 -0.043018 -0.104130 -0.106069 0.128733 -0.154925 -0.209286 -0.035731 -0.310921 -0.141098 0.134374 0.115756 0.059295 -0.428061 0.099510 0.105839 -0.207126 0.279322 -0.080507 0.075922 0.307977 0.504138 -0.551983
old 0.004153 0.083676 -0.187192 0.844034 -0.311367 -0.265379 0.069029 -0.843662 0.401606 0.024796 -0.173461 0.270932 0.242107 0.169216 -0.311682 0.405192 -0.157194 -0.279397 -0.010362 -0.657556 0.045118 -0.506754 -0.080334 -0.020904 0.352769 -0.168011 0.053740 -0.064935 -0.175227 -0.242676 -0.091036 0.293454 0.194267 0.425049 -0.178294 0.015004 -0.228513 -0.063563 -0.165907 -0.116927 -0.515022 0.114844 -0.123711 -0.097320 -0.026565 -0.081384 0.010213 -0.088186 0.049541 0.111446
again 0.118068 -0.460985 0.113834 1.116301 0.416435 -0.858210 0.006799 -0.358362 -0.084705 -0.222922 -0.351549 0.432608 0.400904 -0.171793 0.304922 -0.206930 -0.034368 -0.360028 0.000278 -0.266787 0.252056 0.085581 0.260572 0.415871 0.178448 0.105395 0.121671 0.033493 -0.044759 -0.383149 0.132836 -0.159939 -0.121004 -0.135534 0.058798 0.134597 0.066995 0.012092 -0.014257 -0.042189 -0.183451 0.128929 0.162035 0.498025 0.197145 -0.083948 0.396660 -0.018627 -0.150297 -0.399271
shall -0.050096 -0.207120 -0.154923 0.410793 -0.360888 -0.628543 -0.234313 -0.183731 -0.007668 -0.283681 -0.065412 0.176223 0.571496 1.294728 -0.285971 -0.198282 -0.020927 0.353772 0.299496 0.101291 -0.243814 -0.188502 0.905852 -0.036718 0.152178 0.195291 0.292564 -0.143194 -0.349655 -0.122226 0.159358 -0.316667 0.044480 0.185868 0.324306 0.090889 0.387096 -0.180053 0.081811 0.369424 -0.144374 0.381546 0.068334 0.119600 -0.177503 0.089770 0.309199 -0.218264 0.087462 -0.119302
first 0.209457 0.056397 -0.102046 0.433361 -0.034500 -0.554051 0.270187 -0.710591 -0.130320 -0.119049 -0.277520 0.082666 0.533511 0.446588 0.184412 -0.070537 0.343299 0.149423 -0.187724 -0.338971 -0.068462 -0.470122 -0.067051 0.195500 0.207810 0.157673 0.043586 0.027640 0.041441 0.006695 -0.255072 -0.012477 -0.193646 0.031159 0.115997 0.125309 -0.175272 0.033031 -0.157952 -0.066490 0.072294 -0.229466 0.020242 0.323056 0.089428 -0.033678 -0.106757 0.275468 -0.147535 0.205273
come 0.091051 0.020640 -0.012039 1.009784 0.089185 -0.673239 -0.036251 -0.032045 -0.092668 -0.077991 -0.198319 -0.085952 0.645331 0.413505 0.126381 0.044468 -0.242905 -0.590652 -0.084020 -0.321347 0.096572 -0.205406 -0.024566 0.618700 0.493901 0.438565 0.097629 -0.190127 -0.252072 -0.133191 -0.056356 -0.068898 0.004114 -0.186373 0.303718 0.140557 0.147376 0.028928 -0.060597 -0.107457 -0.429942 0.147444 0.145224 0.292703 -0.407395 0.155566 -0.351533 0.001922 0.169058 -0.256833
where -0.265736 0.224177 0.126416 0.756996 -0.222028 -0.554650 -0.201161 -1.083875 0.137872 0.006410 0.547515 0.239187 0.653317 0.056730 -0.300509 0.484549 -0.110932 -0.109984 -0.224149 0.212247 -0.145120 -0.117397 0.014929 0.238902 0.496257 -0.000666 0.167874 0.006760 -0.310936 -0.009406 0.212268 -0.151201 0.054339 -0.139955 -0.028618 0.109097 0.137902 0.114727 -0.103110 -0.257582 0.190046 -0.065307 -0.452334 -0.334818 -0.059782 -0.188003 -0.166646 0.523788 0.305465 0.134685
mr 0.193940 -0.057073 0.076601 1.086713 0.020239 -0.600690 -0.564300 -0.190064 0.249919 -0.177011 -0.306086 0.111799 0.342266 0.093067 -0.215517 0.210690 -0.104745 0.091397 0.035235 -0.624233 -0.042295 0.070501 0.018153 0.380159 0.256438 0.108710 0.298332 0.413736 -0.433181 -0.408492 0.277573 -0.123299 -0.621110 0.640059 -0.488296 -0.771813 -0.021986 -0.008501 0.071395 0.331249 -0.742592 -0.024513 0.080607 0.358006 0.111910 0.349297 -0.428085 -0.178504 -0.042694 0.535046
good 0.060324 0.262405 -0.253580 0.403574 0.141898 -0.158280 -0.025542 -0.181750 0.071488 0.009525 -0.467542 0.731674 0.102493 1.297168 0.049510 0.183080 0.044865 -0.469133 0.225942 -0.454433 0.058281 0.115540 0.193800 0.099317 0.123774 -0.057443 0.040581 0.185169 -0.134591 -0.193620 -0.244391 0.054918 0.088016 -0.196831 -0.340701 0.352971 -0.042494 -0.284787 0.013237 -0.056465 -0.134991 -0.808118 0.213997 0.082730 0.180439 0.359840 0.084557 -0.278003 0.202633 -0.050750
say 0.203987 -0.218695 -0.222172 0.845763 0.241780 -0.726526 0.085020 0.399008 -0.246051 -0.052652 -0.163071 -0.127647 0.495532 1.060169 -0.075620 0.172707 -0.224757 -0.351647 0.090098 0.002119 -0.404836 -0.434545 0.110320 -0.077430 -0.109089 -0.040620 0.562776 0.054249 0.209018 -0.126375 0.101698 0.024727 0.502181 -0.341461 -0.126149 0.224434 -0.272467 0.264150 0.016592 -0.145374 -0.671783 -0.462245 0.223335 0.387637 0.149433 0.282240 -0.230150 -0.008501 0.198639 -0.198528
made 0.076821 -0.001716 0.095305 0.930050 0.004265 0.029881 0.319773 -0.570957 -0.022034 0.241637 -0.309470 0.250066 0.480778 0.336992 0.208201 0.175273 -0.223066 0.172521 0.254996 -0.387390 -0.021103 0.216786 0.209908 0.194026 0.072355 0.371788 0.156901 0.091214 -0.010852 0.059894 0.141791 -0.024250 -0.319599 -0.432866 -0.113165 -0.174450 0.062625 -0.237230 0.150027 0.053571 0.004112 -0.555926 0.219229 0.252090 -0.203544 -0.171025 -0.444729 -0.451195 -0.102914 0.038674
own -0.096231 0.084677 0.045552 0.631253 -0.051277 0.090499 -0.590345 -0.631447 -0.223041 -0.349220 -0.217584 0.132548 0.594247 0.571950 0.102375 0.100038 -0.075223 -0.115191 -0.167102 -0.207435 -0.040982 0.116398 0.178246 -0.100286 0.012293 0.410594 0.314608 -0.232459 0.031460 0.129128 -0.076112 -0.737237 0.033819 0.359234 0.233389 0.501077 -0.123808 -0.203065 -0.206596 0.045911 -0.319095 -0.076182 0.358988 -0.339827 -0.292635 -0.339844 -0.137915 -0.289100 0.003109 0.139894
never 0.030180 -0.076369 0.027085 0.630029 -0.234511 -0.385168 -0.124949 0.210682 -0.065662 -0.181092 0.035870 -0.025002 0.692813 0.673541 -0.132367 0.254452 0.042137 -0.216919 -0.162153 -0.683042 -0.216036 -0.086274 -0.117656 0.017892 0.012647 0.159748 -0.014994 0.402400 0.002353 -0.179391 0.107958 0.151916 0.182763 -0.238019 -0.108939 -0.045091 0.110130 -0.026557 -0.386965 -0.054706 -0.019979 -0.178957 -0.129810 0.024067 -0.036897 -0.181517 0.026608 0.254317 -0.100370 0.010814
much -0.009273 0.103557 0.061200 0.858806 0.001699 -0.291235 -0.013640 -0.213824 0.241517 -0.110535 -0.019527 0.126690 0.572279 0.496827 0.118637 0.120480 -0.205620 -0.243714 0.220450 -0.444759 0.171071 -0.058564 0.400402 0.277056 0.220723 0.117554 0.039178 -0.248481 0.040703 0.149242 0.014005 -0.455601 0.184071 0.771935 -0.210186 -0.388800 -0.605517 0.093900 0.102567 -0.177021 0.154703 -0.574747 0.410693 -0.188532 -0.050433 0.053792 -0.392719 -0.101140 -0.011661 0.086145
go -0.202086 -0.130563 0.007300 1.061291 0.311358 -0.813731 -0.069030 0.142911 0.065381 -0.034147 -0.067591 -0.078323 0.249219 0.629092 0.285411 0.068836 0.004556 -0.669230 -0.045009 -0.144053 -0.001462 0.181241 0.423445 0.592492 0.234670 -0.198748 -0.015691 -0.291429 -0.378133 -0.186744 -0.039622 0.238045 0.006093 -0.421255 0.462841 -0.036610 0.119886 0.266015 -0.125698 -0.227246 -0.746773 0.089545 0.232302 0.469759 -0.226735 0.162419 -0.189425 0.112378 0.389138 0.008028
came -0.205588 -0.002662 -0.280290 1.176906 0.061009 -0.542136 0.215227 -0.861715 0.015177 0.148849 0.098461 0.024406 0.143215 -0.681029 -0.281279 0.034024 -0.201048 -0.203160 0.017822 -0.389246 -0.049956 -0.433430 0.373894 0.632271 0.150359 0.204596 -0.005915 0.175502 -0.416141 -0.248941 0.333158 0.319434 0.236898 -0.166541 0.203549 -0.034752 -0.006732 -0.127312 0.264919 -0.283971 -0.370784 0.035482 0.194107 0.326439 0.124185 0.429974 0.068174 -0.190126 0.570624 0.027416
life 0.029963 0.114126 -0.238463 0.332966 0.134424 -0.082089 -0.104061 -0.698013 0.412142 -0.358486 -0.021817 0.172172 0.271505 0.720453 -0.106751 -0.189425 0.342565 -0.118244 -0.327811 -0.462376 -0.124016 0.111612 0.363838 0.229429 0.272747 0.309357 -0.031015 -0.158794 0.171209 0.027528 0.003340 -0.296761 -0.318162 -0.106648 0.001103 0.220403 -0.173758 -0.097130 -0.298046 -0.354538 0.018132 -0.432456 0.123672 0.166585 0.047697 -0.684880 0.082878 -0.198758 -0.165607 -0.133669
day 0.165483 -0.379644 -0.311046 0.345117 0.225773 -0.355299 0.118380 -0.768748 0.376195 -0.388276 0.033099 -0.078379 0.764258 0.113867 0.057801 0.002871 0.139543 -0.105678 0.083025 -0.451158 0.015683 -0.042938 0.739729 0.702989 0.160474 -0.310149 0.120980 0.215465 -0.237727 -0.048778 -0.225238 -0.050453 0.007282 -0.242923 0.063759 0.014614 -0.087248 0.210122 -0.297786 -0.278700 0.108718 -0.186055 -0.195589 0.261816 -0.194705 0.192974 0.429842 -0.083323 0.259848 0.001488
here 0.058121 0.357872 -0.061016 0.637476 0.023844 -1.048505 0.163087 -0.181294 0.176143 0.028110 -0.040373 0.566070 0.277497 0.422251 0.132576 0.288413 0.023603 -0.066895 0.007580 0.114831 0.013250 -0.499334 0.536720 0.320582 0.280612 -0.070433 -0.322762 0.069085 -0.244721 -0.001390 -0.071581 -0.396111 0.462375 0.059549 -0.269925 0.236233 -0.212269 -0.295812 -0.270823 0.086905 -0.189486 -0.061333 -0.291491 -0.367696 -0.177738 -0.012694 0.175994 -0.365978 -0.035209 0.551505
great 0.106940 0.334564 -0.055883 0.671777 0.191021 0.187270 -0.019026 -0.998501 -0.034773 0.151973 -0.240833 0.384493 0.176394 0.386940 -0.019611 -0.019514 -0.135267 -0.083989 -0.397498 -0.246070 -0.059864 0.166134 -0.056376 0.145416 -0.048048 0.083514 -0.017767 0.120885 -0.034554 -0.084784 0.224501 -0.131535 0.117521 -0.149893 -0.362328 0.035828 -0.099029 -0.202629 -0.011998 -0.314962 0.141157 -0.231213 0.304043 -0.227240 0.069465 0.096197 0.109451 -0.228461 0.101426 -0.112168
eyes -0.230074 0.399688 -0.096846 1.316701 -0.056425 -0.390715 -0.472925 -1.105336 -0.130908 -0.110100 0.094686 0.115645 0.133401 -0.731272 0.163764 -0.402996 0.014033 -0.633442 -0.009287 -0.367900 0.069019 -0.222093 0.231740 -0.333089 0.130885 -0.013228 0.298089 0.008098 0.225973 0.241523 0.256185 -0.549659 0.293747 -0.224197 0.292432 0.001405 0.215334 -0.463882 0.020608 -0.075909 -0.342303 0.152821 -0.207969 0.036330 -0.290210 0.021375 0.440400 -0.299724 0.160427 0.201298
hand -0.193611 -0.180836 -0.115226 1.511733 -0.123777 -0.192138 0.027618 -0.663510 -0.058037 -0.274959 -0.414337 -0.018174 0.605228 -0.439677 0.157216 -0.064841 -0.017018 -0.177032 -0.261284 -0.124685 0.057991 -0.148978 0.219619 -0.638938 -0.128918 0.415823 0.791658 -0.074955 0.085297 -0.251152 0.090648 -0.621980 0.186151 0.066824 0.153665 0.151095 -0.089859 0.160268 0.080882 0.267187 -0.170589 0.223147 -0.025695 0.176151 -0.020801 0.234986 0.339897 0.191244 -0.099911 0.047624
still 0.083927 0.026145 0.251177 0.579275 0.189785 -0.302034 -0.041885 -0.756651 -0.039005 0.100995 -0.094167 -0.174071 0.278765 0.181201 0.408440 0.206422 -0.154656 -0.204327 0.265116 -0.017867 0.276512 0.050773 0.211152 0.082952 -0.179186 -0.051880 0.637271 0.039505 0.012887 -0.221196 -0.100902 -0.357132 0.150759 -0.068532 -0.012530 0.001508 -0.460205 -0.076856 0.294690 -0.291139 0.100991 -0.111290 -0.183408 -0.239479 0.016069 -0.085792 -0.031611 -0.138833 0.157700 0.012859
went -0.096757 -0.121709 -0.352313 1.264241 0.353596 -0.683266 0.227221 -0.419785 -0.059278 0.006847 -0.098146 -0.135587 0.296403 -0.643274 0.416571 -0.338216 -0.018468 -0.329026 0.125523 -0.292314 -0.005793 0.060454 0.346588 0.646183 -0.046656 0.364164 -0.039832 0.160302 -0.737736 -0.107019 -0.267289 0.230896 -0.031514 -0.144852 0.472382 -0.180160 -0.223509 0.202761 -0.180648 -0.359976 -0.780126 -0.000120 0.213367 0.197173 0.408899 -0.159811 -0.019765 -0.010821 0.564953 -0.364849
way -0.100666 -0.191815 -0.256978 1.098742 0.196974 -0.279747 -0.026983 -0.537573 -0.520859 0.076194 0.000101 0.003337 0.365282 0.530888 0.087929 0.300909 0.317983 -0.292748 -0.503052 -0.156093 0.099721 -0.227586 0.095054 0.331364 -0.289225 0.239776 -0.122157 0.304958 0.179586 -0.083387 -0.078114 -0.093481 -0.325519 -0.059384 0.416071 -0.223266 -0.158007 -0.510102 0.084808 -0.166905 -0.137851 -0.094515 -0.194713 -0.263964 -0.037001 0.003776 0.194261 -0.100439 -0.100726 -0.005388
without 0.399989 0.166478 -0.027262 1.044882 0.089049 -0.341643 -0.228204 -0.457087 -0.371368 0.089104 0.166007 -0.414414 0.331536 0.838410 0.145190 0.007929 0.109900 -0.005305 -0.111626 -0.049768 -0.186755 0.538035 -0.248087 0.110905 -0.021448 -0.019264 0.191175 0.208826 0.225242 0.122913 0.086835 0.244526 -0.119964 -0.265954 0.083699 0.203723 0.022178 0.315915 -0.208281 0.147356 0.107546 -0.056858 0.336180 -0.408852 -0.038494 -0.072791 0.089110 -0.307096 -0.377434 -0.478398
long 0.244103 -0.116597 -0.137831 0.873634 -0.254795 0.132797 -0.202316 -0.707369 -0.575779 -0.216777 -0.019251 0.345881 0.616705 0.151529 -0.174196 0.425412 0.126766 -0.192610 0.362353 -0.064164 0.133643 -0.283757 -0.176796 0.835356 0.187151 0.107357 -0.154527 -0.122542 0.006547 0.217807 -0.063783 -0.097243 -0.065850 -0.016273 -0.241298 0.145685 0.089740 -0.141487 -0.332584 -0.261085 0.037312 -0.250773 -0.028579 0.082572 -0.359660 0.160343 -0.050626 0.102218 0.026421 -0.139113
men -0.255336 -0.075804 -0.040369 -0.017390 -0.193472 -0.223943 0.095589 -1.096686 -0.002790 -0.088000 -0.481585 0.147571 -0.014853 1.105316 -0.055085 0.387336 -0.108017 -0.755480 0.109511 -0.431467 0.054596 -0.182313 -0.415046 0.136717 -0.033092 -0.288772 0.063596 0.063086 -0.063481 0.057073 -0.120736 -0.065389 -0.175858 0.236146 0.273913 -0.360774 -0.422869 -0.129616 -0.093146 -0.053478 0.393427 -0.402553 -0.089641 -0.002175 0.329909 -0.206918 -0.047785 -0.087288 0.206608 -0.140721
those -0.208532 -0.040572 -0.067669 0.129673 -0.175307 -0.220530 -0.401413 -0.970492 -0.440985 0.037136 -0.230880 -0.121163 0.362411 1.094983 -0.154164 0.056062 -0.078723 -0.192785 0.068170 -0.351803 -0.280524 -0.005401 -0.428360 -0.093386 -0.037463 0.063749 0.289215 -0.210612 -0.190532 -0.040039 0.135598 0.174382 -0.013614 0.151723 -0.000703 -0.002888 -0.061730 -0.451096 -0.099761 -0.153876 0.301036 -0.578261 -0.019159 0.037799 -0.155109 -0.165349 -0.279132 -0.164417 0.072871 0.124073
yet 0.203886 -0.167375 -0.079034 0.487432 0.259556 -0.100209 -0.144184 -0.315188 -0.236161 -0.012105 -0.274242 -0.002347 0.535159 0.629614 -0.167562 -0.036120 0.129116 -0.545902 0.109294 -0.273004 -0.115959 -0.102696 0.062652 -0.038516 0.538485 -0.115979 0.425535 0.217156 0.186397 0.390971 -0.150005 -0.260635 0.500899 0.235731 -0.206100 0.189006 -0.029745 0.174958 0.177039 -0.078133 0.076567 -0.272554 -0.053882 -0.255890 -0.153349 -0.145342 -0.172122 -0.000631 0.173579 -0.148628
thought 0.124150 0.074534 -0.389072 1.070948 0.206456 -0.568734 -0.111508 0.155785 0.082384 0.098045 -0.015815 -0.028470 0.533784 0.332123 0.141878 -0.133722 0.199116 -0.464313 -0.107056 -0.586960 0.181060 -0.026672 0.474758 0.242477 0.106202 0.274656 0.321512 0.002356 0.178963 -0.025701 0.178362 -0.208898 0.409919 0.099152 -0.124933 0.358941 -0.179982 0.045116 0.285745 -0.243912 -0.077318 -0.527224 0.125516 -0.339383 0.371761 -0.075053 -0.119086 0.009652 -0.050969 -0.033099
most 0.116578 0.147729 0.117465 0.243147 0.045591 -0.217976 -0.128672 -0.862727 0.048069 0.081532 0.067950 0.051831 0.432758 0.796288 0.176210 0.022257 -0.028530 0.160865 0.129336 -0.290647 0.101408 -0.183900 -0.279812 -0.082836 0.108750 0.306039 0.109361 -0.330801 -0.136968 -0.094807 -0.141065 -0.169232 0.214861 0.222374 0.086365 -0.257012 -0.494716 -0.257603 -0.005598 0.136693 0.149444 -0.691161 0.297956 0.020471 0.284151 -0.299119 -0.340081 0.014073 -0.237954 0.210752
yes 0.178667 -0.576227 0.281716 0.433683 -0.066907 -1.026564 0.125743 0.490360 -0.211146 -0.048301 -0.022892 0.660065 0.422837 0.287629 0.080805 0.441479 0.246197 -0.387388 0.171074 -0.992113 -0.027481 -0.091886 -0.547868 -0.027775 0.297660 0.175154 0.394014 0.629838 0.100380 -0.179036 0.051472 -0.181516 0.706403 0.525411 0.074655 -0.351398 0.119630 -0.184242 -0.072868 -0.191343 -1.387219 -0.513247 0.005355 0.760109 0.523332 -0.534378 0.378517 -0.485503 0.627127 -0.272790
through 0.018587 -0.045169 0.024398 0.818336 0.118935 -0.344722 0.602929 -1.349951 0.181266 -0.149086 0.256052 -0.179370 0.012586 -0.023445 -0.168407 0.128520 0.317150 -0.014307 -0.093975 -0.050400 -0.107466 0.231939 0.148015 0.249142 0.018016 0.101866 0.198664 0.167723 0.221346 0.124492 0.380968 -0.104838 0.459544 -0.133000 0.346534 0.008765 0.501162 0.013700 -0.264651 -0.061037 0.301015 -0.256983 0.366331 -0.345972 0.506831 -0.095229 0.014152 0.025905 -0.057898 -0.220844
away 0.126372 -0.044432 0.346434 1.294758 0.057105 -0.348592 0.233627 -0.465034 0.029761 -0.282304 0.019741 0.500857 0.449006 0.082273 -0.291034 0.335510 0.079596 -0.488765 0.009533 0.007018 -0.171893 -0.038055 -0.067556 0.257791 -0.008014 -0.178591 0.109793 0.086781 0.156317 -0.181784 0.316892 -0.295809 0.067422 -0.406154 0.002660 0.104347 0.038900 0.022238 -0.089707 0.005113 0.007497 0.463207 0.053912 0.228760 0.029786 -0.281896 0.092512 0.084407 -0.111852 -0.323835
might -0.000629 0.003102 -0.080683 0.976657 -0.085351 -0.111122 -0.036904 -0.117957 -0.153035 -0.048430 -0.416307 0.107371 0.626894 0.877292 -0.249414 -0.243087 0.152255 -0.254077 0.357715 -0.622173 -0.186603 0.122203 0.093203 0.227806 0.004357 0.082031 0.347488 0.180924 0.319141 -0.170413 0.131040 -0.137497 0.047028 -0.089311 0.125119 0.554861 -0.016410 -0.454802 0.110407 0.167665 0.658309 0.043373 -0.176986 -0.034454 -0.064290 0.153764 -0.171416 -0.060645 0.080922 -0.092325
same 0.102193 -0.060677 -0.233456 1.019726 0.088146 -0.376697 0.137511 -0.761508 -0.259811 0.307180 -0.592669 0.043747 0.000688 0.260581 0.242763 -0.265042 0.285693 0.261457 0.081367 -0.179275 0.102824 -0.374876 -0.584335 0.008801 0.236253 -0.179605 0.242968 -0.212799 -0.238878 -0.196083 -0.327591 -0.189968 -0.161047 -0.077634 0.228096 -0.202990 -0.319060 -0.168906 -0.012963 -0.095979 0.089660 -0.370760 -0.248588 0.317633 -0.134074 -0.050929 0.265283 0.295979 -0.453680 0.329115
even -0.009702 -0.239553 0.018378 0.918034 -0.317399 -0.326980 0.315843 -0.250813 -0.305721 0.241479 0.339435 -0.050842 0.972978 0.679449 0.208971 -0.112577 0.260907 -0.044079 0.123121 0.137359 0.078719 -0.211310 0.031305 0.289465 0.119268 -0.265317 -0.253981 -0.251196 0.082710 0.115849 0.328069 -0.268233 -0.026939 -0.070777 -0.061299 0.009795 -0.114217 0.120854 -0.141183 -0.092795 0.364615 -0.223377 0.092542 -0.337972 0.139375 -0.040172 0.124808 -0.117818 -0.289188 -0.120092
being -0.087730 0.167783 0.080914 0.510753 0.212927 -0.039868 -0.170579 -0.689011 -0.050565 0.215228 -0.204712 0.024744 0.575294 0.627733 0.116440 0.147280 -0.258912 -0.026891 0.107958 -0.255833 0.117621 -0.212053 0.301781 -0.109688 -0.245191 -0.329708 0.113832 0.082443 0.049763 -0.199325 0.009371 0.165330 -0.225427 0.171077 0.147552 -0.051552 -0.422646 0.298804 -0.177655 0.446370 -0.036809 -0.271783 -0.202823 -0.064483 -0.146464 0.042659 -0.136248 -0.024267 0.069991 0.225967
think -0.093008 -0.090185 -0.275882 0.672274 0.049496 -1.004288 0.300838 0.651599 -0.064382 -0.266749 -0.228069 -0.064306 0.609868 0.884031 -0.144355 0.124214 -0.318689 -0.207269 0.025420 -0.218556 -0.151861 0.142902 0.093374 0.208592 0.075818 -0.048430 0.280216 -0.105035 -0.239722 -0.088843 0.106435 -0.367666 0.242638 -0.062189 -0.075409 -0.007894 -0.210836 0.096583 -0.011941 -0.355721 -0.531062 -0.659482 0.290871 0.067976 0.358464 0.125579 -0.084151 0.127752 0.139392 0.067011
too -0.091937 0.248714 -0.097350 0.553254 0.243916 -0.159179 -0.086935 -0.383241 -0.053862 0.135316 -0.098305 0.415941 0.337073 0.458143 -0.026222 0.050477 -0.006222 -0.534338 0.224813 0.111869 -0.161186 0.314987 0.345601 0.298162 0.146364 -0.091125 0.094817 0.155328 0.015818 0.334725 -0.115905 -0.384697 -0.026470 -0.006122 0.039931 -0.248701 -0.136032 -0.076669 -0.087960 -0.053849 -0.054811 -0.572477 0.445424 -0.204768 0.055484 -0.068157 -0.144755 -0.283764 0.261459 -0.275376
while -0.053890 0.253067 -0.099821 0.731136 -0.259126 -0.267267 -0.271311 -1.070887 0.021456 0.202586 -0.013551 0.149817 0.380887 0.044795 -0.079184 0.155262 -0.030402 -0.090787 0.168702 0.235019 -0.195227 0.231237 0.117769 0.013521 0.176534 -0.050366 0.319607 -0.104977 0.178844 -0.116737 0.129559 -0.490267 -0.150599 0.197562 0.004722 -0.125148 0.035689 0.134675 -0.297898 -0.258066 -0.250526 0.118931 -0.354022 -0.351373 -0.136164 0.095762 0.080134 0.110073 0.110617 0.052097
looked 0.080092 0.324270 0.110965 1.722097 0.033139 -0.752738 -0.036349 -0.795561 -0.326956 0.102263 -0.597148 -0.126167 0.210133 -0.747101 0.168323 -0.405004 0.091600 -0.066138 0.370640 -0.068860 0.392053 -0.284315 0.177108 0.315664 0.322678 -0.347897 0.676162 -0.205405 -0.003825 -0.246184 -0.464774 -0.316784 -0.279709 0.095826 -0.178487 0.067094 0.353363 0.088373 -0.290760 -0.154957 -0.387179 -0.048584 0.551280 0.381285 -0.124350 0.247594 0.215202 -0.148093 0.356691 0.157569
last -0.009517 0.229929 0.202029 0.382540 -0.215954 -0.680436 0.367268 -0.682674 -0.117515 -0.341041 0.032817 0.012915 1.131008 0.058679 -0.247623 -0.468624 0.330477 -0.294617 -0.169526 -0.252232 0.015223 -0.231899 0.171083 0.529950 -0.018942 -0.155698 -0.073422 -0.237985 0.371535 -0.045696 -0.337849 -0.076121 -0.251245 0.101942 -0.375726 0.157736 -0.241964 0.356498 0.023769 -0.516081 -0.436569 -0.119520 0.301136 0.049405 -0.432129 0.088151 0.151954 0.241583 0.192340 0.068606
let -0.095994 0.071671 -0.319438 0.455576 0.134334 -1.000189 0.089698 -0.425065 -0.210382 0.400872 0.072420 0.517212 0.564813 0.833977 0.085442 0.029266 0.318615 0.002479 0.325573 0.245686 -0.104296 0.407840 0.325056 -0.245224 0.240981 0.241095 0.331878 0.045131 0.225911 -0.164804 0.016104 -0.066796 0.456299 -0.664122 0.333227 0.124794 0.302299 -0.247120 -0.232507 -0.004533 -0.375256 0.636269 0.015022 0.032864 -0.088820 0.213302 0.008855 -0.056358 0.582089 0.039482
face -0.183386 -0.193161 0.180709 1.282583 -0.055987 -0.430453 -0.582862 -0.781692 -0.358020 0.012811 0.239277 -0.021874 -0.039668 -0.692019 0.423002 -0.210831 -0.003686 -0.235724 -0.153906 -0.703499 0.274178 -0.166961 0.052608 -0.352765 0.256520 -0.056325 0.646891 -0.287075 0.095863 0.023246 0.151232 -0.311219 0.276497 -0.045604 -0.173211 -0.226604 -0.246391 0.202097 0.028297 -0.292087 -0.302137 -0.259661 -0.081939 0.222467 0.055967 0.094736 0.310721 -0.159987 -0.074578 0.070505
nothing 0.071124 -0.028510 0.152408 0.992142 0.064183 -0.431630 -0.618881 0.346918 0.052748 0.193825 0.090036 0.054228 0.390936 0.728251 0.156074 0.094437 -0.223087 -0.286040 0.120728 -0.741287 -0.296642 -0.171062 -0.001111 -0.037589 0.176956 -0.222240 0.334552 0.146594 0.384308 -0.256194 -0.364528 -0.170019 0.335461 -0.523982 -0.164210 0.096250 -0.512369 -0.125569 0.300118 -0.302132 0.272775 -0.626390 0.349944 -0.212368 0.748066 0.076812 0.267122 -0.017770 0.301479 -0.144388
every 0.047197 -0.182681 -0.212689 0.630383 0.031318 -0.339010 0.075122 -0.945338 -0.145066 0.079397 -0.465891 0.054880 0.103224 0.421462 0.302528 0.047172 0.224586 -0.098295 0.095862 0.048200 0.037152 0.090936 0.370891 -0.198089 -0.090437 0.155263 0.161643 -0.066847 -0.280610 0.046134 -0.068108 0.137191 -0.021350 -0.057307 -0.293217 0.177337 0.002892 0.177314 -0.434529 -0.398543 0.060974 0.086211 0.157468 0.131784 -0.006003 0.137771 0.047722 0.494717 -0.204609 0.060251
just -0.184341 0.078391 -0.095863 0.846936 -0.227102 -0.527459 -0.109379 -0.335518 0.015540 0.040275 -0.427241 0.272016 0.334472 0.210282 -0.541153 0.181849 -0.051801 -0.326707 0.023478 -0.236851 -0.103365 -0.012681 0.082326 0.176060 0.217443 -0.048945 0.203622 0.365428 0.112254 0.017510 -0.181669 0.359556 0.297490 -0.095430 0.097065 -0.491557 0.039955 0.117626 -0.014206 0.159658 -0.334284 -0.313801 0.007578 0.034737 0.161347 -0.181791 -0.025265 0.075360 0.018696 0.357165
though 0.018734 0.044830 0.009032 0.785726 0.014139 -0.175029 -0.069929 -0.333221 -0.218769 0.196916 -0.096522 0.536257 0.638426 0.251353 0.003955 -0.058757 -0.143651 -0.471873 0.176949 -0.232003 -0.091307 -0.109257 0.127601 0.220537 0.468834 -0.352686 0.171254 -0.000955 0.126721 0.253208 -0.185106 -0.167359 -0.124043 0.307885 0.083875 0.081785 -0.084891 0.096620 -0.030635 0.096083 -0.020443 -0.294436 0.016417 -0.064891 0.282774 -0.096172 -0.053407 0.030284 0.155876 0.081425
saw 0.042968 0.052785 -0.103869 1.215890 -0.600657 -0.757139 0.160937 -0.749099 -0.057500 0.011481 -0.135700 -0.446544 0.250188 -0.687635 0.073125 -0.353040 0.083676 0.079689 0.319663 -0.510425 -0.119632 -0.176755 0.233887 0.484382 -0.042157 0.031226 0.335781 0.145910 -0.072728 -0.035528 0.136591 -0.138049 0.235738 -0.158495 -0.068059 0.005580 -0.018901 -0.335277 -0.219571 -0.058670 -0.262029 -0.281165 0.056977 0.156676 0.105160 -0.101914 0.277967 -0.254902 -0.270852 -0.317475
make -0.135134 -0.224274 0.147985 1.069367 0.169524 -0.442897 0.211049 -0.316696 -0.455065 0.237581 0.263932 -0.012941 -0.042052 1.226026 0.197950 -0.004021 -0.315455 -0.033397 -0.020209 0.162117 -0.085487 0.027646 -0.060160 0.099347 -0.001484 -0.075590 -0.234699 -0.407272 0.051143 0.327560 0.032534 -0.218025 0.023162 -0.283269 0.292268 0.148608 0.069275 0.387421 -0.277924 -0.049526 -0.261175 -0.252111 0.275055 0.036197 0.100457 0.023440 -0.053909 0.023161 0.082334 0.140354
head -0.171127 -0.212455 -0.129274 1.110830 -0.167659 -0.037317 0.326826 -1.222749 -0.141994 -0.193774 -0.384764 0.185875 0.467483 -0.569239 -0.001089 0.147072 0.109031 -0.223032 -0.299331 -0.045936 0.127162 -0.084165 -0.036394 -0.444906 0.044963 -0.043040 0.620811 -0.336118 0.205473 0.289663 0.084782 -0.422161 -0.089959 0.127789 -0.221707 0.149618 0.033305 0.013822 -0.114553 0.041129 -0.490341 0.074933 -0.315989 0.082689 0.289129 0.038129 0.230851 -0.382562 0.189432 -0.196259
back -0.026177 -0.302782 0.002229 1.465646 -0.223579 -0.779509 0.286023 -0.570303 0.212192 -0.641558 -0.338743 0.151423 0.101177 -0.214014 -0.235550 0.127210 0.004033 -0.509241 -0.038546 -0.017932 0.142813 0.262030 0.173879 0.741156 0.219168 0.137264 -0.027603 -0.030168 -0.175309 0.059016 0.247393 -0.243244 0.182567 -0.086724 -0.012416 -0.000167 0.199660 -0.080353 -0.230691 -0.108379 -0.362371 0.331398 0.047368 0.178180 -0.058333 -0.203343 0.172091 0.385274 0.097463 -0.064898
another -0.159599 0.180069 -0.260378 0.822990 0.154212 -0.507881 -0.273268 -0.660388 -0.211735 -0.062940 -0.495956 -0.029609 -0.055087 0.552403 0.240663 0.271728 0.170541 -0.281479 0.453381 -0.340482 0.054815 -0.114980 -0.072287 -0.110363 -0.108188 0.010885 0.305048 -0.164973 -0.060176 -0.251309 0.279550 0.215306 -0.043408 0.029789 0.044210 0.047348 -0.524535 0.227790 -0.439832 -0.116751 0.500671 -0.130228 -0.102436 0.261588 -0.092263 -0.024483 0.177287 -0.051961 0.110038 -0.173597
young -0.130527 0.364517 -0.457535 0.689688 0.177085 -0.544331 0.087821 -0.637194 -0.057800 0.246500 -0.222400 0.569741 0.120377 0.113144 -0.168079 0.312057 0.027564 -0.261633 0.253975 -0.661539 -0.192085 -0.448587 -0.475219 -0.123817 0.185156 -0.001281 -0.147353 -0.133530 -0.424845 0.152460 0.418427 -0.217775 0.242804 0.328205 -0.273305 -0.059962 -0.620512 0.072871 -0.089679 -0.180423 -0.354429 -0.338988 -0.027719 0.190747 -0.131582 -0.118557 -0.144904 -0.429634 -0.262251 0.237148
seemed -0.209156 -0.034188 0.236335 1.014094 0.178878 0.243523 -0.185354 -0.662807 -0.640766 0.173678 -0.088309 -0.158278 0.331331 0.074755 0.022013 -0.431342 -0.039392 -0.109694 -0.046609 -0.575022 0.163192 0.070385 0.612069 0.192282 0.452902 -0.082165 0.253254 -0.287121 0.118119 -0.150336 -0.020751 -0.003366 0.225777 -0.296591 0.296341 0.210085 0.132228 0.145667 0.316365 -0.091528 -0.441978 -0.842161 0.079351 0.131369 -0.175986 -0.205957 -0.306669 0.003567 0.295887 -0.067508
work 0.059486 0.112581 -0.980640 1.346424 0.284081 0.401809 -0.303285 -0.768434 0.092986 -0.062536 0.891940 -0.273479 1.255949 1.366953 0.114641 0.401579 -0.326981 -0.042620 -0.479073 0.746026 -0.090315 0.213443 -0.411943 0.250160 -0.426237 -0.125815 0.071929 -0.060181 0.028772 -0.831316 0.264095 -0.125436 -0.130297 0.068025 0.159930 -0.871876 0.424145 0.176420 0.203335 0.174846 0.038233 -0.343842 0.066568 0.232430 -0.026722 -0.077994 0.806008 -0.717838 -0.307097 0.299115
take -0.553353 -0.510395 0.256662 0.771064 0.214634 -0.415410 0.094111 -0.226082 -0.317702 -0.101083 -0.278408 0.104193 0.615323 0.779156 0.352387 -0.222129 0.119229 -0.205235 -0.093651 0.482689 -0.343904 0.274327 0.183777 -0.120891 0.211960 0.323982 0.630908 -0.000061 -0.460996 0.298714 0.139546 0.066726 -0.145591 -0.324134 0.479884 0.053615 -0.238822 0.191605 -0.341692 -0.048529 -0.409142 0.012798 0.666786 0.029613 -0.279005 0.070115 -0.083604 0.087988 0.262022 -0.177203
room 0.141274 0.440508 -0.176376 1.153936 -0.185056 -1.004973 -0.066087 -0.980752 0.261316 -0.007449 0.520073 0.059795 0.266358 -0.881172 -0.176978 0.421492 0.129550 -0.046898 -0.353013 -0.461346 -0.273613 -0.088056 0.390558 0.649613 -0.135339 0.093411 0.028760 -0.047883 -0.313470 0.105440 -0.155109 0.180983 -0.063813 -0.089339 0.565070 -0.589265 -0.252068 0.058566 -0.151475 0.477327 -0.110052 -0.253505 0.001676 -0.088988 0.495628 -0.091782 0.544810 0.014884 0.221862 0.020911
house -0.008642 0.274110 -0.123547 0.701075 0.056597 -0.555433 0.109427 -0.759065 0.446913 0.227204 0.488414 -0.178768 0.427535 -0.161678 -0.326516 0.387809 0.096075 0.017834 -0.222039 -0.197719 -0.117179 -0.061463 0.184721 0.543201 -0.154561 0.297221 -0.117477 0.287005 -0.373069 -0.255029 0.034743 0.061319 0.044218 -0.203363 0.297815 -0.168638 -0.377638 0.005922 -0.561712 0.000691 0.003869 -0.341606 -0.078515 0.002819 0.031431 -0.168864 0.184581 0.349239 -0.205402 0.204845
project 0.897030 -0.144691 -0.769336 2.515129 0.140575 0.290458 0.275904 -1.327513 0.609564 -0.292708 1.383528 -0.125019 0.263144 2.279532 0.066778 -0.923728 -0.048555 0.180341 0.058633 0.474709 -0.041092 -0.266868 -0.851856 -0.417685 -0.306371 0.173094 -0.141435 -0.087688 -0.331206 -0.314274 0.364016 -0.302535 0.170206 0.286708 -0.704379 -1.753691 0.577379 0.335767 0.869008 -0.047363 -0.129685 -0.354560 -0.002877 0.432012 0.363521 -0.305077 1.011719 0.028159 0.079428 0.007426
once 0.092147 0.283023 0.723452 0.752284 0.008821 -0.700601 -0.293675 -0.406449 -0.064324 0.079661 -0.469958 -0.127800 0.478510 0.129479 -0.022475 -0.192515 -0.010423 -0.191153 -0.417457 -0.551753 0.178061 -0.269641 0.075323 0.157277 0.015008 0.235800 0.510985 -0.237032 0.102465 -0.421175 -0.325570 0.261821 0.112355 -0.258647 -0.065542 -0.082409 -0.049159 0.310326 -0.133444 -0.038475 -0.134251 -0.140564 -0.186294 -0.037937 0.041790 -0.204839 0.320964 -0.115154 0.037201 0.071351
many -0.105335 -0.109896 0.234094 0.288505 -0.098603 -0.105305 -0.088437 -0.777343 -0.232188 -0.113920 -0.167730 0.493730 0.221880 0.722095 -0.100782 0.363847 -0.001498 -0.151170 0.097772 -0.497641 -0.060960 0.000900 -0.200756 0.343361 -0.020207 0.044808 -0.497252 -0.168976 0.299248 -0.188326 -0.137359 -0.319650 0.052005 0.232942 -0.235003 0.035869 0.109231 -0.015554 -0.217167 -0.381917 0.135206 -0.535412 0.062705 0.183039 -0.058619 -0.098986 -0.241471 -0.116855 0.309506 -0.205788
prince -0.058227 0.048491 -0.542957 0.732898 0.011138 -0.196333 -0.018145 -0.634951 -0.271340 -0.173337 0.038172 -0.081675 0.325770 0.015525 0.214305 0.278910 -0.331073 -0.569882 -0.280329 -1.314339 0.611710 0.033314 -0.540064 -0.134121 -0.439421 -0.058662 0.260062 0.224669 -0.106480 -0.100365 -0.450017 0.363101 0.209233 -0.618960 0.560750 -0.085914 0.079986 0.150514 -0.110876 -0.501013 -0.559807 -0.014631 -0.237876 -0.059205 0.289134 -0.485804 0.193959 0.172346 0.422258 -0.366067
look -0.217930 0.058349 -0.106124 1.296386 -0.211737 -0.600530 0.097343 -0.259567 -0.476513 -0.115963 0.125305 0.033116 0.147106 0.006330 -0.259087 0.089032 0.213560 -0.303231 -0.207049 -0.492068 0.030194 0.030769 -0.007584 0.205229 0.444043 -0.427666 0.224560 -0.141290 0.171087 -0.276387 0.020860 -0.155437 -0.025269 -0.230556 0.039762 0.008264 -0.243856 -0.018212 -0.247109 -0.030680 -0.780165 -0.142332 0.272908 0.157931 -0.405598 -0.145818 0.223702 -0.164355 0.321266 0.123024
left 0.506701 0.023643 0.112454 1.033285 -0.124703 -0.767592 0.169973 -0.853842 0.324553 -0.038658 -0.387112 -0.089242 0.527199 -0.103070 -0.200470 0.259870 -0.218691 -0.148708 0.132315 0.079140 0.113423 -0.242069 0.086768 0.266787 0.073956 0.205615 0.329835 -0.140719 -0.128630 -0.314490 -0.235488 -0.128304 0.062104 0.043680 0.504726 -0.148195 -0.266312 -0.163032 -0.417312 -0.009363 0.223745 -0.281310 -0.205417 0.334553 0.309502 -0.004978 0.027890 -0.153332 0.215050 -0.252077
heard 0.146154 0.037091 -0.324635 0.346116 -0.212358 -0.847225 0.451300 -0.682966 -0.005760 0.115786 -0.252829 0.186038 0.490332 -0.079846 -0.023443 0.078944 -0.014055 -0.753194 0.187520 -0.851718 -0.090441 -0.232253 0.282154 0.489709 -0.032501 0.118823 -0.090353 0.480846 0.246576 -0.035232 -0.057016 -0.131745 0.572936 0.068251 0.002510 0.210685 0.321279 -0.149953 0.143678 0.396963 -0.250998 -0.555728 0.061215 0.146393 0.329629 0.152307 0.223382 -0.039372 -0.431654 -0.145079
off -0.043258 -0.060117 -0.066208 1.264981 -0.216766 -0.122430 0.156689 -0.995794 0.226554 -0.324753 -0.470075 0.389821 0.232429 -0.000604 -0.044389 0.284341 0.107919 -0.352791 0.059086 0.462984 -0.225800 0.368100 -0.072190 0.044348 0.074538 0.206572 0.247414 0.182530 0.001598 0.102969 0.054903 -0.007617 -0.169625 -0.345946 0.172464 -0.458721 0.042634 0.183529 -0.051644 0.046227 -0.120088 0.097518 -0.420855 -0.044897 0.402121 -0.028560 0.381865 -0.164485 0.173829 -0.044745
tell -0.121026 -0.067394 -0.113729 0.841701 -0.051328 -1.357879 -0.148679 0.734506 0.063101 0.090375 -0.154596 0.561820 0.693733 1.124475 -0.128388 0.013883 0.054211 -0.222382 -0.003124 -0.445329 -0.119519 0.114567 0.210538 -0.116656 -0.054655 0.258947 -0.067492 -0.232976 0.178231 -0.025013 -0.067976 -0.411422 0.597888 -0.345963 -0.292303 0.524559 0.178777 0.651810 0.181645 0.051923 -1.019681 -0.667268 0.248749 -0.154577 0.272024 -0.068451 -0.350245 -0.051013 -0.069121 -0.123698
count -0.251953 0.303209 0.013832 0.760016 -0.028985 -0.765989 0.519287 -0.283834 -0.141572 -0.294164 -0.278809 -0.416702 0.691069 0.022592 -0.476462 0.138307 -0.102979 0.266306 0.175775 -0.977279 -0.074232 0.249611 -0.451059 -0.363300 0.015257 -0.366473 0.120216 0.033317 -0.408218 -0.062072 0.140967 0.148682 0.026040 0.130773 0.172310 -0.818197 -0.403610 -0.047880 -0.456190 -0.159626 -0.931037 -0.257510 -0.473919 0.098009 0.109411 -0.216256 -0.097747 0.147737 -0.408774 0.075226
asked -0.197348 0.019621 -0.315567 1.227973 -0.243618 -0.597353 0.076962 0.493927 -0.025203 0.165837 -0.428830 0.014348 0.410986 0.112402 -0.109459 0.323385 -0.250082 -0.752674 -0.047249 -0.877657 -0.009810 0.087610 -0.004512 0.712372 0.123239 0.204224 0.076480 0.375351 -0.179393 -0.202981 -0.138379 -0.004277 -0.128639 -0.110235 0.384590 0.092648 -0.098104 0.414821 0.156409 0.615171 -0.885657 0.131156 0.384823 0.269778 0.023436 0.109872 -0.361202 -0.130661 0.603654 0.182254
took -0.415312 0.136656 0.009851 1.488907 -0.062808 -0.140498 -0.084947 -0.831251 0.025774 0.177550 -0.743788 0.230647 0.629788 -0.391062 0.080395 0.334021 0.092397 0.198917 0.111844 0.221324 -0.426029 -0.026210 0.137944 0.141172 -0.231708 0.286705 0.284527 0.034738 -0.413494 -0.139459 -0.237915 -0.251947 -0.284839 -0.149654 0.023621 0.056191 0.006666 -0.149368 0.126299 0.256602 -0.278714 0.010261 0.326222 -0.015725 0.440988 -0.146231 -0.043448 -0.469735 0.230048 0.057867
door -0.158733 0.382619 0.456012 1.398875 -0.342557 -1.002824 0.832044 -1.053022 0.317743 0.495866 -0.132496 0.078602 0.102677 -0.686025 0.024076 0.101725 0.127190 0.493726 -0.124367 -0.114392 0.185209 0.208319 0.007746 0.314893 -0.202568 0.235685 0.144240 -0.255149 0.033559 0.128063 0.243647 0.196845 -0.172854 -0.141802 -0.017353 -0.569699 -0.328849 -0.215078 -0.118316 0.397151 -0.102976 0.119917 -0.222509 -0.250314 0.253407 0.178314 0.624559 -0.090992 -0.113580 0.206503
why 0.062072 -0.125274 -0.002589 0.563663 -0.125896 -0.583756 0.154696 0.381121 0.385835 0.203698 -0.159095 0.459101 0.714309 0.817972 0.182312 0.690507 -0.013884 -0.352255 0.474169 -0.494818 0.491403 0.267778 0.233075 -0.174878 0.240125 0.122369 0.516061 0.238381 0.355772 0.140053 0.131016 -0.091042 0.064853 0.245717 0.481331 -0.113641 -0.403219 -0.029095 -0.047146 -0.266432 -0.316527 -0.323734 0.298438 0.099706 -0.329789 -0.348669 -0.023057 0.372840 0.272657 0.286145
under -0.109490 0.205527 0.172625 1.144441 -0.060635 -0.120718 -0.284012 -0.888830 -0.068683 -0.151453 0.052165 0.262992 0.109512 0.665104 0.046135 0.161292 -0.459510 -0.010032 -0.345646 -0.167596 0.110154 0.177475 -0.002986 0.183677 -0.122626 -0.081505 -0.000722 -0.179307 -0.054025 0.272465 0.387736 0.304326 -0.365053 0.169502 -0.006464 0.036144 0.620637 0.243487 -0.237025 0.027354 0.265017 0.076312 -0.274754 0.121831 0.027627 -0.343049 -0.084355 0.029374 -0.472465 0.060115
found 0.394012 0.175792 0.097844 0.876803 0.075315 -0.607023 -0.188355 -0.566805 0.125855 0.134698 -0.062021 -0.180086 0.072588 0.569605 -0.036213 0.249295 -0.114036 0.208297 -0.110342 -0.487679 0.044039 -0.445081 0.246873 0.510327 0.130479 0.595100 0.161567 -0.429305 -0.410085 0.030694 -0.264232 -0.092506 -0.136683 -0.279441 -0.090414 0.252621 0.039338 -0.093241 -0.076862 0.433504 0.331698 -0.474217 -0.115714 0.005436 0.154707 -0.010802 0.112440 -0.214106 0.139988 0.103402
ever 0.028316 0.024181 0.265517 0.683946 -0.282027 -0.263510 0.081758 -0.178298 0.131418 -0.046286 0.029263 0.285279 0.629368 0.796518 -0.504783 0.008189 -0.218274 -0.386967 -0.123468 -0.336897 0.111683 0.166594 0.378708 0.085587 0.079381 -0.130212 0.304997 0.436277 0.133393 -0.098410 -0.191628 -0.243223 0.381884 0.070747 -0.287846 0.294792 0.134631 -0.007520 -0.220022 0.031501 0.127246 -0.703885 0.287235 0.056136 -0.049458 -0.106541 -0.135049 -0.015470 -0.110206 0.020900
night 0.297714 -0.015343 -0.332435 0.411951 0.050410 -0.561764 0.147196 -0.856450 0.242381 -0.513678 -0.306889 0.082633 1.073019 -0.275106 0.224145 -0.326137 0.089097 0.005098 0.009614 -0.406602 0.249273 -0.431364 0.590311 1.153145 -0.327506 -0.042626 -0.139898 0.153564 -0.203447 -0.313042 -0.267944 0.032606 -0.159401 -0.012734 -0.024808 -0.221301 0.058714 -0.068628 -0.490085 -0.236138 0.048734 -0.357326 -0.180763 0.013574 0.136564 0.153548 -0.086183 0.154101 -0.049282 0.187045
always -0.007695 -0.093247 -0.172796 0.664738 0.149547 -0.434713 -0.177783 -0.386745 -0.133901 0.233188 -0.145549 0.429440 0.169643 0.802615 0.308307 0.431821 0.047493 -0.362479 0.200177 -0.360463 0.215721 0.013301 0.028106 0.138149 -0.361049 -0.253018 0.097461 -0.419703 -0.302697 0.032401 -0.344690 -0.182368 -0.076538 0.293774 0.073712 -0.199889 -0.436015 0.037504 0.172574 0.126503 0.134707 -0.565861 -0.060888 -0.170629 -0.000532 0.200889 0.013095 0.066663 -0.033653 0.227687
right -0.288219 -0.646755 0.045014 1.348641 -0.462539 -0.381232 -0.212772 -0.197951 0.236642 0.056030 -0.138563 0.379981 0.917900 0.376182 -0.256139 0.322106 -0.199583 -0.251101 -0.129739 0.752314 0.117301 0.134260 -0.102289 -0.540912 0.342529 0.438516 0.294763 -0.099457 -0.100425 -0.048166 -0.055970 0.055282 0.217689 -0.069914 0.486423 -0.225783 -0.117001 -0.102804 -0.171791 0.545315 -0.150492 -0.132123 -0.540769 -0.334897 0.072589 0.051307 0.110790 0.399944 0.007197 -0.148142
father -0.261776 0.132613 0.046053 0.528274 0.288449 -0.594387 0.062904 -0.071727 0.412670 -0.303337 -0.281292 0.117776 0.945192 0.081554 0.133846 0.189878 0.155568 -0.415108 -0.211742 -0.792523 0.250426 0.075831 0.392260 -0.228939 -0.407309 0.273593 0.315795 0.057312 -0.414589 0.200201 -0.072794 -0.436168 0.024983 0.218697 0.511331 0.004547 0.057453 0.174223 -0.374223 -0.002245 -0.690935 -0.150375 0.032223 -0.253722 0.176542 -0.263723 -0.114543 -0.508841 0.226172 0.125096
whom -0.034649 0.248350 -0.193933 0.556952 0.071960 -0.158460 0.389834 -0.719802 0.141075 0.495313 -0.157095 -0.290306 0.392175 0.543315 -0.047104 0.451530 0.305672 -0.464560 0.146280 -0.838720 -0.174444 -0.304002 -0.105615 -0.207049 0.020317 -0.022065 -0.018957 -0.248715 0.004764 0.097336 0.105385 -0.038762 0.113989 0.547700 -0.128296 0.028172 -0.026826 0.107465 -0.219967 0.319147 -0.229345 -0.102670 -0.051102 0.074215 0.033846 0.257960 -0.214330 0.270914 -0.060587 -0.055923
something -0.197614 -0.210840 0.034842 1.043786 0.339716 -0.244053 -0.167283 -0.394997 -0.139789 -0.097832 -0.211461 0.255803 0.098921 0.344227 -0.169687 0.162403 -0.228302 -0.407433 0.008195 -0.267669 -0.026172 -0.097791 -0.145265 -0.045448 0.197545 0.090853 -0.178733 0.296964 0.487673 0.211156 0.201264 -0.193674 0.072396 -0.494572 0.220843 0.107581 -0.333579 -0.302296 0.393156 -0.214709 -0.191600 -0.165376 0.225742 -0.245934 0.063556 -0.071663 0.228887 -0.087540 0.124914 -0.142016
dear -0.390691 0.295929 0.297692 0.379709 0.197451 -1.160619 -0.074324 0.319232 0.215543 -0.277304 0.054793 0.745877 0.978624 0.474431 0.130866 -0.184769 0.213278 -0.195023 0.036494 -0.378194 0.326085 0.079343 0.354499 -0.139640 -0.082501 0.582445 0.331459 -0.105212 -0.129648 -0.001305 0.169648 -0.138856 0.679766 0.252581 -0.180520 0.135766 0.271636 -0.328853 -0.449214 0.116537 -0.805817 -0.789597 0.130331 -0.143859 -0.144387 0.141670 0.335156 -0.509663 0.020540 0.307520
because -0.037003 0.201248 0.042047 0.628299 0.189924 -0.156764 0.342458 -0.162606 -0.163805 0.107948 0.037691 -0.016282 0.486453 0.793260 -0.104926 0.233620 0.135973 -0.178280 0.346988 -0.467432 -0.204111 0.103278 0.160317 -0.095232 -0.230784 -0.107190 0.224851 -0.135925 0.230039 0.109194 -0.315652 -0.008895 -0.283406 0.212810 0.012101 0.458887 -0.119350 0.376408 -0.054564 -0.294447 -0.073320 -0.174753 0.097576 -0.526969 0.149244 -0.114342 -0.084240 0.114190 0.239978 -0.422323
having -0.012632 -0.104777 -0.298202 0.575987 0.109243 -0.093662 0.001593 -0.576733 0.262001 -0.335025 -0.221142 0.032277 0.643774 0.136471 -0.040485 -0.217120 0.137392 -0.136408 -0.223462 -0.587011 0.027202 0.165067 0.010264 0.189484 -0.101075 0.147300 0.114307 -0.031852 0.162088 -0.111651 0.180249 0.142117 -0.007594 -0.041923 0.249351 -0.171495 -0.195760 0.189824 -0.211883 0.172724 -0.232030 -0.324710 0.200716 -0.122219 -0.039421 -0.205386 0.185897 0.214759 0.551575 -0.252555
dont -0.481314 -0.036501 -0.212647 0.724280 -0.163671 -1.362329 0.523410 0.697471 -0.180299 0.043197 -0.150405 1.068019 0.391520 0.868444 -0.345292 -0.263337 0.021332 -0.412602 -0.094209 0.135574 0.000090 -0.154407 0.457022 -0.336104 0.373945 0.118287 -0.027328 0.129314 -0.063319 0.233698 -0.439399 0.089292 0.680272 0.043352 -0.193119 0.103579 0.249787 0.686116 0.033665 -0.180171 -0.659185 -0.751831 0.266103 0.280354 -0.159223 0.110612 0.073453 -0.624792 0.202452 -0.009572
give -0.215512 -0.237130 0.122342 0.852722 0.106905 -0.103452 -0.060555 -0.022434 0.046757 0.144651 -0.103669 -0.013763 0.665338 1.378844 0.076000 -0.271482 0.049281 -0.304189 -0.167947 0.064188 -0.320077 -0.028687 -0.013809 0.052761 0.268229 -0.250933 0.136246 -0.006138 -0.458538 0.012484 0.152599 -0.100987 -0.172307 -0.411866 0.003212 0.360587 0.262279 0.370514 0.155210 0.351692 -0.621718 -0.233195 0.186382 -0.036443 0.064920 0.149117 -0.136044 0.024630 -0.059065 0.127572
round 0.017807 -0.221854 0.073845 1.064223 -0.291549 -0.370649 0.089374 -1.611538 -0.292348 0.098511 -0.214892 0.404199 -0.194805 -0.403826 -0.187945 -0.312778 0.116418 -0.195977 -0.195515 0.258865 -0.155994 0.238173 -0.155543 0.301203 0.011866 -0.224754 0.109797 -0.088488 -0.108639 -0.082371 0.165930 -0.415212 0.059242 -0.380827 -0.435013 0.137312 -0.311444 -0.113146 0.285372 0.012092 -0.158872 0.164776 -0.065188 0.081593 0.075929 -0.066120 0.241181 -0.403471 0.101093 0.042049
place -0.164904 -0.253085 0.263697 0.900488 -0.195654 -0.448090 0.038273 -0.594325 0.356208 -0.060296 0.378431 0.042843 0.507651 0.156027 -0.263124 0.372415 0.038519 -0.063707 -0.272890 0.084613 -0.345170 -0.078997 0.412594 0.541098 0.185121 -0.175633 -0.252111 0.390591 -0.381668 -0.509401 -0.241494 -0.278750 -0.189940 -0.150655 0.221460 -0.190064 -0.443786 0.070642 -0.274445 -0.672357 0.092397 -0.291695 -0.351544 -0.126504 -0.241602 -0.120648 -0.070512 0.157426 0.199720 0.207340
three 0.090921 -0.453521 -0.152557 0.450932 -0.115420 -0.747726 0.230157 -0.887656 0.140675 -0.548356 -0.187504 0.069264 0.643201 0.319295 -0.225463 0.455864 0.074831 -0.092324 0.174917 0.000010 -0.340883 -0.051888 -0.325900 0.533791 0.207816 -0.274430 0.246429 -0.007022 0.009171 0.061013 0.271074 0.187306 0.014484 0.336858 -0.655396 0.379646 -0.228170 0.012642 -0.188678 0.054888 0.289472 -0.147791 0.329498 0.414389 0.141855 0.313896 0.540882 -0.192243 0.242778 -0.064984
chapter 2.390711 0.371929 0.075439 -1.156182 -1.863424 -1.738168 -0.364004 -2.276424 -0.378617 -0.440750 0.085821 0.403184 1.516171 0.680999 -0.210807 -0.101830 -0.309826 -0.100055 1.399226 -0.320454 -0.029736 -0.289722 -0.070214 -0.588946 0.143708 0.170686 0.196117 1.323909 -0.555357 0.087141 0.749635 -0.295367 0.351311 0.397499 0.223818 -0.069659 0.465654 2.247783 1.110039 -0.161275 -1.017439 -0.552065 1.868669 0.104731 -0.315480 -0.499632 0.901948 0.171254 1.079297 -0.031179
quite 0.127750 0.096420 -0.062531 0.818339 0.410161 -0.734393 0.059023 0.208520 -0.582994 0.233236 0.191300 0.365436 0.497069 0.211033 0.397228 -0.095349 -0.125529 -0.251037 0.100450 -0.243496 0.143421 -0.097827 0.130071 0.031958 0.065412 -0.023237 0.315784 0.044856 0.149225 0.314062 -0.085396 0.191801 0.356623 -0.170412 0.316538 -0.234760 -0.220863 -0.138311 0.207926 -0.180111 -0.066472 -0.544535 0.015346 0.255447 0.277950 -0.539167 0.158802 -0.459211 0.129675 -0.007518
whole 0.306461 -0.038295 -0.119966 0.340601 -0.092211 -0.218224 -0.040969 -1.010953 0.081408 -0.061783 -0.297509 0.143532 0.209703 0.832509 -0.301778 0.038402 0.112285 0.195251 -0.019373 -0.067058 0.231040 0.329640 0.283901 0.236030 0.274097 0.157233 -0.082131 0.008155 -0.033270 0.189090 -0.216187 0.620514 -0.114662 -0.416557 0.322917 0.167010 -0.259846 0.206661 -0.119103 -0.067733 0.251862 -0.310966 -0.006130 0.156249 -0.341075 -0.489600 -0.161844 0.361640 -0.136363 -0.292693
people -0.136851 0.108097 -0.185635 0.557328 0.381862 -0.407076 0.155271 -0.711885 -0.161695 -0.330241 0.038835 -0.247401 0.418630 1.031566 -0.043726 0.231879 0.009804 -0.700371 0.207128 -0.438370 0.198939 -0.145960 -0.520683 0.304478 -0.310301 0.048781 -0.393206 -0.089272 -0.166253 0.173871 -0.070106 -0.003249 -0.057963 0.011235 -0.077693 -0.121998 -0.451228 -0.166269 -0.045344 -0.092473 0.242710 -0.114836 0.126100 0.052572 0.161040 0.145489 0.193282 0.087731 0.099030 -0.265534
seen 0.196377 0.261566 0.073604 0.677500 -0.370328 -0.530113 -0.062033 -0.794641 -0.267059 0.174276 0.160670 -0.200439 0.388937 0.190481 -0.178387 0.386098 -0.143673 -0.289298 0.030242 -0.574823 0.157206 -0.360391 0.490351 0.462814 0.718065 -0.006188 0.045663 0.216693 -0.095920 -0.238727 -0.551241 0.000824 0.147847 -0.124672 -0.180977 0.085852 0.196177 -0.038799 -0.008255 -0.146311 0.361416 -0.357868 -0.155347 0.131404 0.072828 0.100824 0.137800 0.282043 -0.265711 -0.493990
mind -0.051610 0.114659 0.032764 0.530768 -0.037690 -0.038841 -0.362442 -0.720231 -0.177978 -0.333296 -0.433361 0.058101 0.410556 0.659179 0.169046 -0.138137 0.004238 -0.008537 -0.402522 -0.595496 0.109699 -0.128913 0.540858 -0.536724 0.158890 0.118801 0.492581 -0.109993 0.383805 0.155455 0.175166 -0.259726 -0.240524 -0.111131 0.118559 -0.031204 0.153872 -0.089997 0.021749 0.012642 -0.256937 -0.102217 0.036166 -0.355410 -0.002705 0.022163 0.392402 -0.297048 -0.354252 -0.198748
oh 0.057834 0.231212 -0.488570 -0.752818 -0.288568 -1.004513 0.119467 -0.227813 -0.100919 -0.182933 -0.395610 1.326893 0.938735 0.569900 0.321728 0.415565 0.164139 -0.367574 0.152208 -0.311700 -0.368375 -0.249900 0.171272 -0.297422 -0.488769 0.383332 0.346106 0.051898 -0.391470 0.274617 0.275652 -0.987042 0.930125 0.123195 -0.084027 -0.100775 0.039542 -0.246242 -0.716794 -0.686724 -1.136557 -0.576022 0.082872 0.035807 0.506403 -0.408738 0.160821 -0.322485 0.721777 0.204117
felt 0.013071 0.070551 -0.209505 1.248675 -0.211393 -0.057163 0.383964 -0.492012 -0.031746 0.085961 -0.269607 -0.216005 0.412368 -0.243823 0.166642 -0.549654 -0.010434 -0.126901 0.220199 -0.796097 -0.398908 0.010167 0.101515 0.266484 -0.023120 0.201481 0.559040 0.016172 0.302193 -0.021829 -0.137509 -0.034233 0.013525 -0.064280 0.121447 0.326424 -0.149658 0.005621 0.461533 -0.049968 0.299499 -0.589411 0.172765 -0.361325 -0.103031 0.096288 -0.074786 0.168589 -0.317047 -0.083175
pierre 0.074309 -0.351091 -0.198947 0.802670 0.161195 -0.737202 -0.007805 -0.471304 -0.468673 -0.158620 0.075066 -0.542912 0.257152 -0.320320 0.145909 -0.264142 0.149232 -0.622886 0.122558 -1.029392 0.365372 -0.091520 -0.392618 0.168545 -0.117363 -0.046504 0.211279 0.182971 -0.119622 0.254064 -0.405560 0.174854 0.117214 -0.179153 0.183305 -0.440091 -0.516629 0.198227 0.099322 -0.281038 -0.260259 0.141604 0.230980 -0.135900 0.002183 -0.275655 -0.190898 -0.193533 0.645398 0.048138
put -0.366986 0.088532 0.132218 1.202823 -0.180736 -0.391353 0.001938 -0.305912 -0.002469 0.074997 0.000419 0.131752 0.211374 0.175521 0.307684 0.302692 -0.030000 -0.155256 0.041117 0.182157 -0.215260 0.121298 0.347444 0.300195 0.188591 0.404692 0.317070 -0.165437 -0.511398 -0.531412 -0.240880 -0.071295 -0.708062 -0.252679 0.265309 0.106010 0.164310 0.105769 0.127298 0.068203 -0.433322 0.055840 0.259720 0.404585 -0.112055 0.141327 -0.150600 0.154535 0.517680 -0.138315
replied 0.275344 -0.206601 -0.158382 0.764072 -0.427202 -0.888805 0.251493 0.173489 0.148187 0.332222 -0.125838 -0.048683 0.707461 0.401259 0.132818 0.111387 -0.376824 -0.231018 -0.032330 -0.321440 -0.280507 0.064134 0.184484 -0.005254 0.026748 -0.159627 0.151016 0.049710 -0.235994 -0.167110 -0.209394 -0.121826 0.442897 0.251252 -0.088444 -0.122239 0.013052 -0.181813 0.183763 -0.011070 -0.971192 -0.069764 -0.593024 0.564333 0.318200 0.002114 0.200966 -0.135897 -0.269869 -0.395020
nor 0.244269 0.220022 0.050034 0.222624 -0.355369 -0.334718 -0.046872 -0.611036 -0.055629 0.415479 0.221856 -0.214771 0.670626 0.995610 0.232050 0.070705 -0.117897 -0.352999 -0.043226 -0.057372 0.111310 -0.009739 0.745604 -0.270673 0.495090 0.351016 0.925315 0.329889 -0.058836 0.488735 -0.034209 -0.078869 0.280415 -0.113470 -0.041389 0.560894 0.486522 0.401142 -0.290416 -0.172522 0.122353 -0.312592 -0.452993 -0.654735 -0.206768 0.495561 -0.227444 -0.019153 0.524564 -0.131052
moment -0.152233 0.017397 -0.084452 0.965063 -0.028745 -0.487694 0.397429 -0.281664 -0.235155 0.346394 -0.468745 -0.015290 0.734829 -0.219120 0.173004 -0.391278 -0.142870 0.225177 -0.188106 -0.559218 0.102962 0.367638 -0.236710 0.665591 0.237202 -0.316495 0.367765 -0.038578 0.450559 -0.425092 0.142765 -0.143890 -0.210980 -0.458246 -0.229644 -0.398370 -0.622018 0.201806 -0.523288 0.168640 -0.056511 -0.191411 0.145518 -0.150362 -0.041899 0.138048 0.532599 -0.057231 -0.390017 0.068909
began -0.174044 -0.429948 -0.251898 1.266760 0.038922 -0.503577 -0.182085 -0.475846 -0.468906 -0.110485 -0.089388 0.005331 0.174411 -0.459184 0.068127 -0.300154 0.224306 -0.316002 0.602837 0.174179 0.057121 -0.068422 -0.055000 -0.253551 -0.182682 0.150492 0.000530 -0.017051 -0.317970 -0.333058 -0.104086 0.005250 -0.083305 -0.453725 0.126102 0.136065 -0.111088 0.042287 0.117475 -0.105875 -0.595917 0.084436 0.260924 -0.021885 0.090156 0.046828 0.214630 -0.048770 0.290462 -0.169096
hands -0.074507 0.059574 0.407057 1.192846 -0.200559 -0.273261 -0.141745 -1.059681 -0.257745 0.041736 -0.747082 0.274721 0.378522 -0.108730 0.010441 0.038912 0.008588 -0.471498 0.044120 -0.168947 -0.000936 -0.246618 -0.192750 -0.223584 -0.137100 0.389715 0.341469 0.020866 -0.115968 0.071235 -0.223640 -0.478764 -0.330028 0.057100 0.195794 -0.031345 0.137358 -0.493364 -0.219636 0.539226 -0.543064 0.390875 -0.250682 -0.062109 -0.150080 -0.089101 0.594339 0.014675 0.029507 0.226211
thus 0.350481 -0.339897 0.174141 0.198967 -0.543076 0.001004 -0.059644 -1.191471 0.097243 0.043113 -0.255251 -0.007224 0.367429 0.524390 0.306913 -0.180898 -0.122552 -0.569969 -0.075645 -0.213957 -0.161802 -0.117793 0.684274 -0.274435 -0.344074 0.140095 0.351669 0.217199 -0.087073 -0.035723 -0.176550 -0.486864 0.047825 0.173772 0.252381 -0.101535 0.372758 0.061728 -0.449386 -0.135981 -0.543071 0.322720 0.016352 -0.191492 -0.311649 0.347426 -0.354895 0.224207 0.333267 -0.014187
